armchair 141.539007718994 -8.1010934039804 39.689298331498 -6.64056425734133 2.8233698314394 -35.1497544517045 6.77243282488327 21.2111838195225 -1.47076575522759 -37.7663030105807 5.08005648858829 25.9782931190577 14.2733146508526 8.15539264420394 2.21225013528529 -7.37042257961987 11.0204403784579 14.9082395626374 3.52496713734537 -8.55848685199759 -6.8914563561765 -7.02789102528015 3.67457678015064 -11.9516251174196 11.3356457345109 -3.31267625891556 2.87346176426344 0.71585061628419 -2.55025701045636 1.5736086874313 5.89758680022282 -2.71496922970347 -0.480834256227368 -10.0322858829246 2.63143618601545 4.43288620947909 -2.15820266083167 4.21446461256237 -9.09153442803166 -6.37431447266504 -6.61774542795303 -0.73120951468147 8.26237006233812 5.03018885840442 4.39849859022557 -0.455035549315727 -1.94001149913064 -1.52993668942909 1.00555820840007 -1.44441107792655 2.72529660746884 -7.47476261737061 -7.39982067052936 -1.58263958364465 2.64356897639695 3.79851445948006 3.25104451042878 -5.59153949004814 1.18744815361874 -3.72570857993824 -1.73719318180139 -2.78776821679537 5.28541960570047 -6.32143046785496 6.81176867984637 2.33584573782994 3.60292578474944 3.16911096191904 -1.86199412584928 0.531610893507848 -0.576586129038736 -0.0884751239870787 3.5471838978712 6.71829628765325 1.18916119887197 3.28996710658498 1.22068688449881 2.90727858057773 -3.51875052286204 -1.0749051463574 -2.1732871833557 -1.00702491647197 0.175284995517558 -0.93521732968417 -0.599421438164122 -2.39217134105852 -1.83982864458673 1.54486999360423 1.30678470508719 1.54293233501426 4.91559383613878 2.44898029341089 -2.79795077701481 2.62921222179881 1.66233534459002 -1.60992817157473 -0.649948976990842 3.15521296740467 0.828950712344813 -1.89695135094665 -0.287462855693184 -0.301331983043977 3.31347180845272 0.535389148389494 0.914396848264162 -1.32712595788545 0.380395947568042 2.00568669938723 -0.856103331973105 -2.53439860089996 2.67088030944435 1.94530728612877 -1.47194925462034 -0.345639072782443 -0.602090581476038 2.04386750837238 0.989002210824308 0.33480218019635 0.0948702988571483 -0.82054780904105 0.353188383024793 0.497308511793899 -1.11467334322553 -2.77566862691746 0.918213212390322 -3.79115456689103 0.467922015146231 2.93064343970163 -0.238110180153581 1.48757445866301 1.35823277578961 -1.54957728821968 -0.246793296848544 -1.59781090417871 -0.250813269302088 1.37825606201026 0.123453315028623 0.564232038197909 0.350013454662406 1.44260140290403 -0.934183638047458 2.18261784456601 -0.294918021493852 2.20120230454966 -0.448355374603679 1.79291220239442 0.840875762738214 0.407606449948836 1.16634784536196 -0.430562480429046 -1.42539460110881 -0.512210667624308 0.828973238894719 -0.925346864332771 1.63139606803163 0.97662205972625 -1.10158017766 -0.876056383050199 1.13303735925552 0.29674584068048 0.753964352006826 1.44838978054799 1.64285893780636 -0.904024620956542 2.18915992565229 -0.715440321828175 0.165044691934444 -0.149291691206344 -0.0927420850343911 -1.3351830345744 1.11226206442031 -0.25875366968524 0.0941877522381647 0.362717430722746 -0.388830746786078 -0.355721815692152 1.2534316641474 -0.440806460102886 -1.14319051097915 0.172041793766196 0.0505007969515197 -0.750754138957685 -0.305224902982984 -0.115490126437761 -0.403079529488374 0.408921230558497 0.111159844451976 1.13158928536958 -0.545642412465204 -0.0130717699567848 -0.292297214971172 -0.78642363266685 -0.352028675054767 0.527560750741219 0.928444190014522 -0.38862045318734 -0.480339173132536 0.0897600485063005 -0.95572669986729 1.38959806802791 -0.166184343106088 -0.389858007564141 0.360070319956026 0.619420715644879 0.583899423049802 0.504373148865201 -0.276172617897215 0.984086929370306 0.227113787214718 -0.581697428875416 0.25186995921323 -0.00874091834652194 -0.374373167961146 0.042800539790481 -0.751573798822798 0.498227187245545 -0.733564032042715 0.0588224941191675 0.197764860923672 -0.697077780497918 0.00593901247724475 -0.485461431232699 0.516122262420671 -0.20878910598811 0.167013168285909 0.865249140354255 -0.0805185678070657 0.673109094369734 -0.581654406986867 1.2017136364917 0.160032507204477 0.200522110818734 0.693492191258658 -0.024546736079432 -0.291485100050295 0.207361678799474 -0.411250059664165 0.202630430812473 0.0601000459306655 0.356000312536629 -0.100765219667287 -0.566280817255238 0.815454279599322 0.25219864927576 -0.710511812979584 0.415130367579355 -0.0903867743457278 -0.0119150541295842 -0.243280426997986 -0.376333204581212 -0.182095654708051 0.276164722615897 0.120773171111446 -0.081661458839767 0.0855300767365926 0.267396524882088 -0.717153499019751 0.0803283958846189 -0.349031143666565 0.0653007561923538 0.542670207947839 0.413735301678871 -0.126280287081253 0.578151929108485 0.0742109136219929 -0.228378449251227 0.157113726266454 0.00757285690954644 -0.5207018608774 -0.405030138597018 0.0108869907721866 0.315073335805149 -0.631554720298 -0.368364642633229 0.516453493091893 0.338650360507306 0.208030891366783 -0.115523313803605 0.305891053100219 -0.148109780491824 0.21432282556022 -0.0464912216372278 -0.445647503704406 0.0773084403507173 0.00553741299236332 -0.27121150639559 0.60907438432043 -0.337331583138936 -0.576309754523382 0.158089283491797 -0.404413069956725 0.397427431416018 0.296414285760176 -0.16880874708645 0.167577877356922 -0.60672058666209 0.63191620314797 -0.305358960795853 0.262490446692454 0.240292357821617
backbench 166.989443642264 2.18812073489285 41.0622297529896 -48.4175979378417 -3.61403792983752 -41.5846504064174 25.4176678932157 54.3820367681199 -4.61048273323521 -41.8748893391557 -26.2754474648669 38.664997412536 17.6318684062202 17.5271155446741 -18.4325939467014 -8.72383357660136 -23.2436903848404 13.3703958804424 6.86197413590968 -7.97507325545588 -49.0159684209944 -11.880418975435 8.99831338545944 -20.8944449126893 20.9730310676788 -3.2199654349148 -8.52142730632718 12.2619304218714 10.4208970117879 11.1704851082656 3.94522894646969 -13.7577738304479 -4.74356823092926 0.537306949160859 -2.92222359293395 6.42877205218367 7.04159396305908 4.47360901793311 -31.5571400191796 -1.66513473452621 -0.328832269118438 14.0001361749367 18.3250975031103 7.43451156058789 8.25012665069347 -4.69385679627929 -0.315770769099282 4.87967726228606 -1.62926609829372 0.0940807668301116 -2.18635522131567 -5.60357860380087 -1.72444435503766 1.44250833261455 9.23996077384333 -0.883797642011682 2.01973193134285 -1.96924628390967 8.08642081527549 -8.82627213672133 9.79914034792939 1.39504920566708 1.15562612539549 -6.56068742324463 10.3747437830751 -4.71886600977457 8.73488483095166 5.08571858941948 -6.95559257565854 5.5563632245101 -2.71860397499413 4.35213388734962 -11.272041438414 0.129948025228754 2.19498148962973 11.4147008998837 -7.38994565662667 1.05097700443242 1.06789564288027 0.166582460306936 -4.18097587813059 0.763820367269677 2.24505892422038 0.676070798815559 -2.45661722483825 0.829388447594049 -3.79356494867611 6.05165583451467 2.28837590620198 -0.143479379030851 1.70694186904989 -0.356280892198263 -4.72729899311527 -5.68574632141936 5.08722422390885 -0.175921728103861 -2.02522634685476 2.47207295804424 -4.61206037981735 -3.04951021866837 3.35603793097159 -1.54887207879806 3.25327403751959 0.0398877734153541 -0.950200979014017 -3.10658738854763 -3.86877019457549 0.818085709810592 0.99414927366734 -1.32093672334033 3.79793069528145 0.615722932982864 -0.090869829670815 0.321133386412525 1.05514349717547 -1.81434042658656 -0.922997492828063 0.160542822950219 3.90109356302952 0.17903667074898 -0.362086049916431 -5.0248232611377 -1.71727073146926 -3.35321828432606 -0.357589657204241 -1.88398403472899 -3.48979367226399 0.753749599082388 0.651386451350719 1.06681245827822 -1.68303282473507 -2.24386881091359 4.24157881011333 -0.0643952298849525 -0.256863309712873 3.81314348491457 -1.64852764944371 0.28246106594477 1.96144682360829 3.86214580330615 1.85279490076059 1.62632360756192 2.93940623595279 0.405588258618869 1.93102004716116 -1.67662431089158 3.37645105867204 -0.476973284312308 -1.0238073322612 0.590860910745059 1.68443289013413 -1.93010140937055 -0.48460165333765 -0.686987553630814 1.86589139586738 -0.328350608585279 1.31140136922787 0.78740386899159 -1.1834760704199 0.847899487133412 2.17954164971245 1.77626240525435 1.02490915912212 0.297973904852221 -0.292168198562546 -2.54154918007124 -1.06272703499929 -1.00401512099197 -0.645180627089997 0.332695512495656 1.97640244063694 -0.691895408695402 0.0565004699838446 0.933690796103435 -1.02696055238866 -0.773945324936602 -1.49666253519216 -0.503063898286221 -0.56379108357644 0.75893708627882 -0.269861305794282 0.259573625235917 1.26780520464273 -0.550729966009244 -2.12360424008812 -0.00789809482860514 -0.166984298958008 0.252328625041608 0.762125074222968 -0.794062502966227 0.125529880371877 1.50880218997426 -0.334069431687743 -0.840536229425965 -0.569584608732481 0.799069390167372 2.80742061274093 1.24145378606114 -0.269848036311521 -0.6662135535413 -0.183276035358744 -0.416418006503767 -0.211553637037669 -2.41714835314142 -0.778047423907121 -0.668255463624804 0.130629199011885 -0.102089410939574 -0.350004073071895 -1.11356473419499 2.21097911371253 0.93963493759138 2.43846606214319 -0.196436810047988 -0.209076750626794 -0.252910568684562 -0.571791550575537 0.863691352803048 0.365253742834245 0.141700843878596 0.575765979822595 1.12681577986283 1.35513767925937 0.460374086645346 0.186936242391152 -1.21541218159881 0.513652614655048 -1.74915288667136 0.173819290868204 -0.834748333949123 -0.0388248968427288 -0.0251081339585306 -0.94377811515889 0.131244184890832 -0.438083131296045 1.85156713543353 -0.435275737145926 -0.282292957786613 0.571775262178848 -0.388762106797271 0.0813407889015587 0.940772580263938 -0.272077944139076 0.0489725156995289 -0.210832339312242 -0.494028290103949 1.0033914641953 0.48974763573839 0.0113955382722784 0.965240717459971 -0.260946376881356 0.188752446943917 -1.24171389032077 0.519302832279381 -0.66212892050895 -0.532967402566634 -0.520099372248317 1.85639954521491 0.0725564262477005 0.0143261792205607 -0.589632078599475 -0.798289921931585 0.384182226062446 0.107770866607166 0.0631356441776271 0.133770298554057 -0.601585307029927 -1.92571393326714 0.540259393260674 -0.500352026632494 0.235550671184352 0.758121245276164 0.365164670922475 -0.140945895957965 -0.263733898892606 -0.573135697892842 -0.493199707851289 0.15735847027089 -0.404252928554236 0.394010176521762 0.300172092147554 -1.00924855623733 0.159606636918664 0.481388697127317 -0.291764752319216 0.300919129033223 0.24039486154815 0.392713902676346 -0.177698736328759 -0.108514809779001 -0.444191646916397 -0.0946700467715618 -1.511817018997 0.948324848350719 0.529568184401364 -0.011225229862149 -0.194244967497119 0.139492791959241 -0.188036898318298 -0.0135244593716535
backhoe 126.937397934353 44.5545801742931 1.63557751532917 -38.5412753385905 2.53923371344809 19.6035918004187 -35.4197071908429 18.8745492771131 4.49740053309175 -7.49202669311444 -2.33126741742907 6.91968226038636 8.8976397239269 -4.80121387032182 22.7805807207588 -18.7896987074155 10.5894307323674 9.76800841874655 -10.9805449235738 22.3361126898293 -4.91337818098491 -7.3828913287836 10.3084263911082 5.14601904844511 -3.69331865412478 -8.33127089821776 2.03544769685776 16.7325470665876 2.8086994033326 -14.8553735120013 21.6384552834371 1.29435538152754 0.283702982856718 -6.82648970525824 -3.66934327783595 3.23665934525307 -0.376587325635946 -7.88447686168493 4.39585655091205 3.24901511397151 -7.84289641165635 5.30037900833789 -0.0647906201096398 11.3209120663871 5.30952305306279 -1.23753621245603 2.20791618588601 8.32957957821171 -4.84126657440938 0.911864643622137 -6.79934274750201 -0.649671909407208 -4.38267695981696 2.64408484686722 -1.43422644552208 -3.64349393033321 1.68202767413325 -3.83897185241951 1.93359554814395 0.716189896559313 -6.16908537062234 -11.0291309817705 -7.50008465899572 -8.57104230342054 -3.22032395219316 6.30687592355765 -1.43862647031182 -0.462270260096297 2.11256199724966 -6.1441826458608 -1.52607636412512 -0.355637297364609 3.11933680960094 -1.71144027836187 -0.85767700452093 -0.110738368082827 2.01959149567693 -7.11170820001122 7.76182337181392 8.85594650789868 1.92464180958582 -0.786760238685562 -3.1420839861976 -2.65509729105086 0.941971709315934 -0.470741562260827 -0.0422228103098216 2.6526797649009 3.27678233468439 1.79800105997593 0.968686318742998 3.07351826835868 -6.75079058276052 -0.983129891652077 2.65319014894045 -2.24984874546208 -0.214973713512906 -1.37001312943823 0.804857530424765 1.80001487845456 3.81734884308594 0.0473494375338896 -3.97514013281549 -3.46229100566115 0.763489733090353 1.32901127067769 -0.949490145423612 -1.11754229006871 -3.91550402153339 -0.0244163415644781 -3.35987157507345 2.77131594551126 -0.389289410573179 -2.63860699325416 0.238767088815345 0.848715835094112 0.798255180734321 1.82596068049887 -2.5292674813146 2.21511933813143 0.274822157479518 0.127434416147288 3.38080589559447 -1.38214556961222 -2.3832314887227 -0.607967504715455 1.07260864751505 -1.42324337475523 -0.982490058723333 -0.88280950961045 0.0581121220416644 0.621691194298419 0.847396510512219 1.12118001505433 -1.31260877507877 -0.100385471217582 -1.12540275632353 -1.45112012119265 0.261716545768884 1.8488951120917 -0.327469738652173 0.479654392150805 -0.721674296995212 0.00630109349281719 1.73091758850703 -2.42826774329744 1.47981058131626 -1.15809778544709 -0.0972121209816287 0.527219728863834 -0.663437713758381 1.17576291116955 -0.80233668896735 -0.485675452449569 1.02321194625793 2.50789550175883 -0.00703486159134274 -0.283554369499687 0.0844541991547036 -0.846754259249196 -1.57616119480761 1.50616900594195 -0.295799095247804 0.990161540956994 -0.773794173616003 -0.13692707495891 1.69609023331542 1.44499309122831 -0.790618577933652 2.16461628465514 -1.29783632676157 0.458556588068483 1.62687708809538 -0.00389493461411724 0.955362204974266 0.530500386840779 2.34656106279923 0.297041682651084 -0.453949747317965 -0.890126126839312 0.615276001220125 -0.26712217599936 0.101830161385949 0.892481475609072 1.95220731368695 -0.630266542098771 0.499520109217176 -0.0492461805100035 -2.13933956588734 -1.58124043368568 -0.0901705170630448 0.469185863107225 0.623194617952545 1.22456325648625 -0.150524286026208 0.354767654767337 1.87718759270162 1.51831199505219 0.0862688462150217 0.30699679110173 -1.56673834540713 -0.219383242437363 1.08116633585644 -0.590460879486253 1.03125163077144 0.588056428461487 0.0710203543615903 -0.00912650396552391 0.19617708450457 -0.378968410774378 1.21008105275182 0.464191957181148 -1.33459392211862 1.69761283245938 0.714940757154036 -0.248786569849606 -0.430696785480939 -0.609432307255385 0.211692173435079 -0.416303706667907 0.78080529814564 0.722128198277624 0.539864396497577 -0.253989235426348 -0.0177477901522749 -0.0952185893046397 -0.55468347183048 0.227805180677955 1.08390153314849 -0.30434881500195 1.10828205092301 -0.436004364054891 1.02255004728741 -0.892755138939302 1.19904186154683 0.469286729075627 -1.81685938058543 -0.255524634762392 0.226831780626705 1.14700391365708 -0.737965360142021 0.185852098604042 -0.543020417693887 0.181272200594146 1.47779195074998 0.407172175259765 -1.0320713267991 -0.513727991639685 -0.845844021194945 0.617981539296468 -1.19329832143488 0.313856562774633 0.174895464555545 -0.47027299504593 0.355988191538535 -0.750742465032357 -0.403800026871007 -0.295570474580095 -0.303360323425293 -0.123180182368916 0.686416252636704 -0.13142559608547 -0.516652791482888 0.23463453569141 0.759128694309291 -0.582153086486015 -0.402002402991366 -0.333576635294129 -1.13061984527303 0.572807355385509 -0.597149757106773 -0.0807341548348662 -0.754820008443355 0.280212860682994 0.27926824832449 -0.120530820030456 -0.211649047117881 -0.442881493476244 -0.116100146126045 -0.224814971140908 0.04079547216654 0.697567358001154 -0.462928984656448 -0.0816664604808685 0.531227455630192 -0.100180607558972 0.980523792446664 1.07151011899967 -0.0246218833815072 -0.520282798418472 0.140361595519605 -0.320988838444082 0.0286652514924458 -0.105267869686705 0.575211768758618 -0.536574829592349 0.232520757297739 -0.554539283170965 0.831260727178596 0.0882628152543884
backpack 142.679967433996 -18.2422061286848 52.7546148911921 -2.84920382869159 -22.5819544219381 -3.68219352628513 -20.1427997943212 -7.49179831333615 38.7152093886301 -16.6747429945716 0.188535079250818 -3.74214447494493 32.6756469398444 8.58671555028196 12.3754566259435 -30.3760797756574 0.269186474077863 3.75467889487602 -1.10677295206538 -5.13534924817214 17.8772553135431 11.0943619051014 -1.04694481416139 7.2832970763896 13.6518092968679 3.3873507376004 -6.20791417611345 -6.18400846203376 6.65410878010831 2.71280280407265 12.686724709423 7.11886372520883 10.8079786676355 3.90777837697015 7.47269953367153 1.45242273238333 -0.860768509479878 -5.41271918316137 1.12646489004756 -8.30197011496012 -3.54197444608321 1.31281027508159 -4.42926223070853 16.1625325337591 -6.74055442240981 10.0466679939974 -0.868891815926713 -4.4306944649678 0.978361451051625 -3.52582574366211 5.40280044870319 3.5369839791519 -3.98278806964775 4.88114361238058 -9.9100248603559 6.01670662245332 -7.41140443275259 3.94501695999287 -1.46451824822077 -5.05984091473103 -2.66809342964084 -3.08918556895542 1.47397288700946 -5.2450811229439 0.411632622150933 3.74013256972889 -2.60244487999209 -0.522838353997533 0.0405968487476977 -0.521318865463508 -2.16490893968362 4.25876905876011 -4.48786127673604 1.85979548232375 3.24982663334696 -0.220375789793087 -1.55993892464255 -0.0891997094238968 -2.00242198852834 -2.01863374305055 -0.0554067441998906 -1.23810570155306 -3.00786985982301 0.372881732733753 1.60964315104522 0.305111733236814 1.89000893990256 -5.56430878084787 2.34033904770139 -0.659881605170645 -4.43561307526898 0.837907491007301 5.67440298493614 2.08178031518838 3.32810585368433 0.94754943709104 -6.53182447006171 -0.0413734497223466 -2.48002814315932 2.66766338629192 -0.128620975704487 2.57418728059873 -1.23626520581099 -0.972894886606715 0.255467023366665 1.51567763610658 -0.361277553296228 1.03162181604213 -0.797999961152052 -2.15708097717119 5.22502113354998 2.52799833974493 1.14449600900678 -1.27178846159402 -0.782762189613452 0.387872002363317 0.318281539568473 -0.326089111381138 2.51118164873313 -0.106767874200098 0.391864419373584 0.518778234520401 0.581794674881175 -0.430597688197926 -1.09281804555367 -0.0420870772861391 1.16592907997042 2.06887927227362 -1.3848986070114 1.93964767518234 -2.87583261572804 -1.84611047910975 -3.03493262799186 -2.69849724267962 0.0430256715102817 1.26216255866192 -0.186366260578579 -0.849940257891281 -0.701430589171103 0.474353961781444 0.0407054521736597 0.30805066911327 -1.33800222505425 -0.174539757796214 -0.729961457454512 1.55680855197274 1.60144694242684 0.301110302021498 -1.43556232613842 -2.09589435886819 -0.280649796490569 1.58667346423729 -1.1670126783814 -0.920054928301824 1.06628699108972 -0.534068958850895 0.297769756828351 1.59421499715607 -0.518624954119862 0.597976644571705 -0.19022549062196 0.497672136333561 0.48065328064952 0.328743392444214 0.724366477543186 1.32395273538863 1.38993229889655 -1.56372759761139 -1.14381905927237 0.461674642655613 -0.200335091591397 0.904021928069884 -0.804176367986725 0.821653814299373 -1.87164974442033 -0.0817613828498327 -1.82042846939106 1.16385794309987 0.482132408337581 0.478558133090431 -1.24213275295973 -0.0214668885156963 -0.821337744931692 0.426261120463895 -0.249142975958282 -0.534975395902798 -0.748124047757971 -1.29194112832823 0.828413257135494 0.474660012749135 -0.541436815244235 1.17928251705706 0.646500001496325 0.0340810893313366 1.96121818077181 0.382201137793523 1.53982419557696 -0.599772830735275 0.908866145152346 0.49971573559779 0.932199539944624 0.256865708637199 0.0856966809593736 0.923696927217224 -0.000944564007990083 0.53742028757169 0.724692043668425 0.0855909448694104 0.42516738306629 0.438433505550646 -0.420211988338806 -0.636463628128337 -0.30407383079445 -0.210108283982302 -0.131239583274317 0.405134892303974 0.108543341261783 -1.00950697443888 -0.842709074200685 -0.635883107795643 0.0131439236559848 -0.907047039467005 0.286466561189741 0.0474876059492451 0.630433689263592 1.25747664994048 -0.269875139600052 0.727847828593731 0.65237891242418 -0.815027089390759 0.136037416923279 0.435923405582799 0.671791629523467 -0.448032098982568 -0.0897214727148621 -0.27734224006982 -0.0716170675405185 -0.311363143948558 0.193145843754106 0.440147014824007 -0.606126473423024 0.593222801227389 -0.652807396099756 -0.146267318512806 1.36021521675471 -0.0703015706870565 0.275898321686608 -0.30245062518115 0.515962701726835 0.539148732197973 0.0303958241598509 -0.52848298416589 -0.127134223951756 0.685082574149236 -0.227998369177564 0.248985479184914 -0.494671044133825 0.586849943677344 -0.11809482848035 -0.166833762919572 0.180498586989791 -0.386329217167856 -0.0268428727024754 -0.402487072454021 0.377610980943457 -0.0714171915248689 -0.0106415403450741 0.109576525798532 0.160309491283022 0.447828893926235 0.418220030382448 -0.416606133869588 -0.163033999837348 -0.180406458280007 -0.218623616134736 -0.441743327872615 0.397417091029275 0.192818734911645 0.429588438302518 0.189175572148031 -0.418001802075861 -0.125908374374935 -0.259364844790176 0.400871712712432 0.482931854900696 0.0619763656986186 -0.851345195377036 -0.344227256774421 0.463555035790115 -0.732973298460052 0.396892606746194 -0.0179022070847347 0.136742984993752 -0.107261151239021 -0.0957017189935817 0.735574607865957 0.39114752348057 0.299473406524689 0.360545824655453 -0.516397357821552
backseat 133.145600909359 22.3817286788363 41.3442635450384 27.9122232432147 2.3471496266213 -18.1746946628815 -4.90484126462154 -7.22131809895747 8.58862141830261 -5.48132747094948 28.7642640875459 9.65551237863492 20.9318325811174 -45.696718372788 0.381340236011255 -2.87610256381006 -0.397230194236692 8.06567261452667 0.996667651341405 -0.227729620922878 13.5811950358161 15.7746880382998 -2.88270522628199 -0.471057946847526 11.3391517369764 7.6490363686234 -5.32062839453196 -6.50971652198151 -4.23770126190301 -5.18399825570406 -2.39142691640332 -6.60649579158597 5.71582092616204 -8.29463823638084 -3.52494795708378 -5.31971821998465 1.90767195615936 -12.8463417627307 -3.84245128135469 -2.15477328502629 -0.796738403760223 -7.22495726547149 4.43974839594651 8.59146623667704 -5.15269411961663 1.86325789052307 -1.11670934160732 -0.863477976065748 -1.30869689513423 -3.57614641062967 -1.05511706892927 0.740430910955153 -8.84488490209562 -0.289331227490602 1.19946030054781 0.406887959508213 4.09486124911685 -1.31275341778562 8.05559820123348 -7.44934317566463 -4.48669712176148 5.66298629460561 -1.1899844852474 3.52759404987986 -4.0064499095243 -4.31738893578171 -0.642078932069767 -3.78568260664734 6.03795136316894 6.05428837399316 -0.214837866963076 5.83075475224475 0.310179328787104 6.11341704278761 -3.00064806069315 -1.81106996578487 4.58389531002195 1.11859234196806 -0.316676184594529 6.87823138667837 -4.06099353787372 -0.26987408301068 -2.62945661516804 -0.701164491588477 -4.69955441818874 3.40574499780111 -3.1618862891492 1.9235137237628 -0.906142295625126 -1.77809407688878 7.74857644662024 1.78308059124299 -2.10780932894109 1.22724776730086 0.0626166202694609 0.613394773701645 -1.0353809993164 1.17595220221319 -0.698828980519358 -7.19499214444078 -3.99578177376166 -1.09528743880528 2.30057815153854 -4.24603998923049 -1.36275703855275 -1.84574285572465 3.45047541883957 -0.727393567352971 -1.97148191438686 -0.396733775894337 2.83118535350487 -1.42890986489814 -1.24773978622854 -3.77801720453998 -1.57992490094333 -1.61309292332368 1.76387416281672 -1.96320559459898 -5.15799767489971 1.93623512345005 3.16763270792918 0.321113246471664 -1.02531667651686 0.607434470169607 0.428556017315752 2.00116644812445 2.0468500789945 0.884377915805677 0.0478180926699492 -2.01533229737815 3.3902564452728 -1.92600221485295 -1.32832378189891 -1.22434120529191 -0.429624694563739 -1.00367364196449 -0.0455032203794471 2.08454811807981 -0.615012465087686 2.16121663800593 0.943856903787853 -0.298238467512154 -0.617783705256554 -3.16362200478925 1.43742088279601 2.33170345033328 0.243652345704899 -1.05306573264774 -1.60381294943902 -0.10146721644728 0.500119699927279 0.541482488505107 -1.03160071508225 -1.89672458835517 2.13012986458725 1.53876430481653 -0.747495361281964 0.758195505839148 0.776114340117527 -0.940473414471482 1.77187576915471 0.811736084513975 -1.6957878924986 0.225569593356116 0.146997089968808 -1.85677192887414 1.28185281170183 -2.11781379654447 -1.66739547879797 -0.332839506159656 -1.92030522416651 -1.45783235174229 0.378105619223662 -0.908610585798574 -0.0131457455278889 -1.27958906151611 1.24989278875813 0.0684681925601196 -0.991532018232591 -1.42269213373705 0.612580803367248 -0.0992780230525914 -1.10179614826947 0.726885263420252 -0.204560149365668 -2.60095489458134 0.974093200215569 0.0511945440218298 0.211840315367271 1.31273557956414 -0.732524557369467 -0.224824535976759 -0.539637502017138 1.61456389936932 -0.812623169943819 0.745031209079238 -0.810464234294854 0.785923164459222 2.39180592282764 1.01563920644932 1.18812952370461 -0.808752508988345 -1.73957520210626 0.0175208340102267 1.0982086237663 -1.3678132913649 -0.604581924131824 -0.280939929709544 -0.942305579078371 -1.59936764639464 -0.0801465048095122 -0.936054433045303 0.677083487674406 0.16509201209844 -0.154510672106223 -1.00871267579623 0.0960115220316937 0.515980158129097 1.21595549749429 0.455705011884356 0.304162182984113 -0.545609667662991 -0.657449636391453 0.0803418405304362 -0.70665910102716 0.0569993774429307 -0.544681575736977 0.154168112862047 0.0560462225565714 -1.13241785423243 1.18351600970155 0.262402292994969 -0.892349899907378 0.831791808149126 -1.12734024471639 0.0910784569258726 -1.44451081247542 1.33165711928699 0.394186116198855 0.605988881711934 0.471969713618196 0.657691777354274 2.06103709859924 1.09381510677998 -0.0725219135845993 1.31645505269188 -0.331728787248134 2.00497902280498 0.0347880553751934 1.05471103426146 -0.160982686453728 -0.900113955134067 0.717369351793315 -0.543595706883357 0.160773879040365 0.0931626499929536 -1.61423692594166 -0.671802154282899 0.756137121827234 1.49352264420713 -0.477668651446103 1.40809089471117 -0.0778895321929663 -0.792166665363155 0.472602601204521 -0.484157873986694 -0.879065161568663 0.474775819051881 -0.224534400467428 0.503545324305229 0.103621552927724 0.0975437139365226 0.332400401796926 0.179228132799349 -0.318300469430905 0.822425153778617 1.40778383956171 -0.225692106021957 0.440048918026003 -0.33040665755953 1.45529058236813 -0.704333532163982 1.26569577867277 -0.650263843741046 0.197253337620509 -0.663569864631534 0.248723639096465 1.53064528103579 -0.979617792985897 0.482781226856268 1.01595162197536 -0.85923174648037 0.0816121558846459 0.99963732816121 0.493746233664082 0.0697996884903943 0.536265945665254 0.246152340389786 -0.81169046460675 -0.742755668714218
backstay 124.518175898898 27.4962221574975 8.45506971809377 -44.1551844446025 -7.7012595776319 12.2335487880817 5.67935289470269 -6.94784265718486 -35.3267513280382 -2.7172928911795 16.2298031726443 -10.7735274214094 22.784677691737 -0.884189675005512 -10.566790968089 -11.9677701712954 -16.463263967151 -13.8056355549979 7.07319019244265 10.7920399048073 3.6350973277978 8.44796546830254 17.0007898987107 15.6288711495531 10.1901142322174 13.1083889549224 -3.38559319746919 -6.25644681416536 -7.53355223988762 -7.85216229710301 -2.01527726858774 7.65172789793267 -7.33154886187718 -1.18702575530977 -14.2582467451041 -2.12996797212422 -2.68162798258084 -4.4060330597551 0.161865523514477 -0.499845289853062 -3.04370802350491 -4.90750475674667 2.95480551060479 -2.15667787973316 5.11277669947229 -3.27542344773147 -7.04350243054338 5.29453155821051 -0.234017428144288 -1.19219784135347 7.15789335257073 3.11189683576068 -0.973055346261661 1.66350805430221 -3.52325321743099 4.97515529384872 4.98193526429642 -0.0842464262159994 -0.222548148125366 -0.952337412008366 1.35461136786179 0.317687386114655 -3.7112043102733 5.66073567824243 3.56903076994982 -2.47071633483054 0.0106308522614068 3.77098941346775 -1.89497790726968 3.8481252401772 0.957788762765323 -2.5884602718214 0.63041582800025 -1.1612193074616 3.19240530455541 -1.35071906423285 0.612053327744141 -4.58090815755579 0.312012512302353 -3.77410504504395 2.7242900002527 0.92828989402024 0.903047857972888 0.828172630778341 -1.51335689694768 2.03217826837633 -2.43726451236741 1.18375242048737 0.498986829744739 2.94713818964824 0.698865867863165 2.16309638758866 -0.753026341684548 -0.990070061219783 -2.63498059910788 -1.04881956070423 -2.16708778813479 2.37135064408437 -0.151028568628115 -0.152958109832546 2.24055434604953 0.85781679639673 2.83653001430483 -0.913046365910437 -1.29979728178199 -0.839036253106362 0.8647932323518 -0.297446479050973 -1.20954306279677 -0.609332912607265 -1.55449943309218 -0.899252089611524 -0.193778049423521 0.540576175964029 -1.12413748753999 0.453751485975381 -0.69621475917901 -0.149049310430171 0.635207346633212 -1.81603703621735 1.17572167310307 0.135661065889764 0.0362303237679652 -0.833150162402227 0.945918309593419 1.65543927730339 0.80109857858649 0.166946634414654 0.973077421476652 1.18376400049037 -0.484612318109761 -1.41651948457148 0.326090767658683 -1.63841006151073 0.608824237178826 -0.356348624738461 -0.352407265889019 1.43904012405465 0.360443452001742 1.0593640187348 -0.408102499519753 -0.726275198980413 0.473376278217807 -0.660340765599359 -0.12032298868167 -1.03297820440849 -0.472567479880565 0.512251107748544 -0.414789479697051 -0.365303557325085 -0.19072633696335 0.40350111998444 1.07217365457217 -0.171058628254591 -1.38066081910233 0.895607248027339 0.16847224114837 -1.04413429539719 -0.350340899833333 0.950277832344428 0.338522101827988 1.38220253050389 -0.545774252558155 1.40943678553028 -0.20402188164122 -0.198253134992612 -0.747496667500162 -0.688147393898076 -0.404027761858241 -0.338112685984122 -0.311907607306358 1.05951753892692 -0.863317295369489 -0.14910619059893 -1.53334765746297 0.395352180814624 -1.10376628427755 -0.106241373442322 -0.0616979810987581 0.897280519605471 1.54655338126595 1.04114473957349 0.368306134828311 0.290409067654054 -0.173207030572622 0.397725942997267 0.0813897301625318 -0.287497483059081 0.0499955978936369 0.26117153966662 0.45616082683285 -0.612517713244952 -0.504033684029053 0.131440312840883 0.725508791378126 -0.0468410169256314 -0.0954884429632621 0.477625361257279 0.102683313346131 0.28250204698538 0.136360923043633 0.763237370066655 -0.0700857633078058 0.405179019291305 -0.47795432418454 0.397143776058334 0.225048988834725 -0.336886963891439 0.11908943824537 1.44424379240836 0.145855299157171 -0.079246266437136 -0.610430339063665 0.225224189001418 0.0752218720585395 0.278617946879742 0.569710733622997 0.227896272372857 -0.0398185515308784 -0.334387254738857 0.640856878614194 0.726332076014224 0.288164182982138 -0.310756906099037 -0.241589029231321 0.47164774232659 0.189801741636825 -0.614328197669074 -0.380715388652909 -0.266537413534591 0.463349938398013 -0.404152375976521 0.133101496957647 -0.0487301938779711 -0.606888131857286 -0.231333175480224 -1.035848284788 0.357136786434245 -0.561447445351782 0.155575258307689 -0.752945104346737 -0.22547797637091 0.852064638229368 0.158802900733473 -0.0264387893738436 0.260743818988615 -0.258150914229509 -0.0818426715605927 -0.316941428699288 -0.21127863127953 -0.195281732038622 -0.379809851948137 0.745697661245407 -0.100409247067836 0.276253301940393 0.320512198020569 0.365587314387404 -0.469821349095083 0.196424159673534 -0.0287973067957773 -0.950487113277951 0.0315392796691475 0.477146736669734 -0.451669478054563 -0.113576870542606 0.310024175515654 -0.214022678025244 0.67389108673932 0.35998884918326 0.682205531853704 -0.00602949028770626 0.630435359266248 -0.515208843662631 0.303797537753004 0.6968945088561 -0.405920437554314 -0.203830129867826 -0.57339174209358 0.0771048321171259 -0.424126676356636 -0.250825807115957 -0.277320764309379 0.0571925902775285 0.0189440602905797 0.249531709899497 -0.100136714957302 0.176326172545375 -0.340447002394237 0.34218576893258 0.24365044172209 -0.0853325949488618 -0.30446243875078 0.208331977801537 0.0574149860017602 0.178519535511615 0.381402047342338 -0.239566805853359 0.0377505698818683 -0.504113602474111 0.293905476121007
backstop 121.670422314732 44.0623670499157 -8.46488117000828 -58.1744004081073 11.9677191629824 12.9361313009714 9.53125446867021 -10.7947099620023 9.9755597144465 -10.8439822871875 7.37223059205248 22.6780163285665 -4.42504313155772 1.58055689125483 -34.4111799935025 -1.18815790728532 -30.6509334815907 -11.3023566680709 -0.855142640416695 -3.70999612668143 -7.97379603521693 -0.156291048743346 5.53362734434441 4.74054782741069 -3.82125543778474 5.22849327168063 -18.1072442254259 -8.72725775444657 -16.7424330990641 15.1643634338394 6.12806093033924 7.80830792334628 -23.2732896188864 -8.6599527318823 -11.7099787907476 12.3989379000472 14.2799035345248 -0.957395587636345 10.9163837877696 -20.3220716916667 0.166813617350335 1.36511291914548 0.554089309912925 3.65618340712531 -4.28169396132035 -8.23749629305731 -3.89734954099659 -9.13944544876457 1.63363544437412 2.33223520438144 -0.984322511590536 4.84691721213524 3.24558760471427 16.2591228155909 5.95090206807307 -4.70017567998775 1.45366576330646 0.902336036942634 -10.0984270346635 2.41113353224256 4.30931864490956 10.337838817801 3.82264376368774 2.95046560580642 -1.69980505885701 -0.62142508529603 0.22422221163013 3.65927982664122 -6.16360761936269 -2.91321718791021 -0.348102411774743 -1.59979564372619 3.9476602085795 2.43684089528512 0.145492204461833 -1.2775384733423 -3.05200641807296 -4.47802944997755 4.27883090178048 -5.02570196784704 2.40993269396189 9.31233496100626 1.38340912134602 3.04031396471635 2.05199633891453 1.20627774964676 2.10080828358897 -1.27064323848281 -2.07987692534136 -2.96166313232631 6.65012862307622 3.08059611195096 -2.78526180147501 0.903464664062728 2.00730044317432 -3.3794036879325 -8.28717923406003 0.710336745579151 0.986760537628851 -4.26785030250465 -0.523842463293043 -3.32273001943547 -5.69214482274544 4.95011577443696 1.38443597681092 -0.378965923453506 2.04094089617432 1.097953268615 -3.9195100714191 1.72919691468265 3.23370597588105 0.346794735887629 0.837513762200156 -0.572502700205411 -1.89482986440329 -0.773985923947325 -0.232543732141024 -3.95314485442421 -1.96593643615385 0.239820266880214 -0.471514992004598 -0.538295798731456 -0.574392024971844 3.34176707129793 -0.709074736918817 -4.67145485684978 -3.73375467680874 -0.700342361827225 -1.23391559849233 3.02767076505409 -0.504885256811223 -0.0831413240278958 1.25457235106512 -0.808681490195366 2.86262754865639 4.59725501442427 -3.3421121320999 -1.22969230564451 1.08802786035601 -3.38535706661789 -0.487049374427562 3.33921612702017 -2.35421117572768 -0.855940532689375 0.745228325317565 -0.0143891781882843 1.44067114200158 4.3898031645744 -0.925903948499505 0.17178585927009 1.4534473652972 2.79286927066399 0.33782804759296 2.32180248514897 2.4802374463893 1.20269949015551 1.21728518408378 -1.55945432569913 1.06098788359309 -0.515072827294264 1.86603251691556 0.210097830439979 -1.44126183850184 -0.973026570215118 0.371782093467379 -0.806863682327972 -1.14935058701775 0.795861830298498 -0.281117004152116 0.601516289518151 -1.22881031506924 0.98126041873682 -0.080630841302935 -0.81284517743161 -0.435987975996572 0.224986119022841 0.329104488822886 1.48613328606309 0.773804279776819 -1.52720515386839 0.162772409534669 0.626004716953477 0.703929003639564 -0.732965312048448 3.35739247796792 2.31834400381552 -0.683883952851605 -1.67348753487596 0.708273966332608 0.577876790674016 0.250320663934721 -0.198335313348129 -0.760134595411663 -0.75519068679248 1.32588187609029 0.185733986337981 -0.586302449363445 0.771830142852906 -0.0322282996607975 -3.44500265989719 2.76314686127997 -0.138619242509951 -2.27217983962188 -0.648630252729102 0.0970940584273603 -0.707415211300613 -0.887741540343075 -3.08429163273923 -0.792680212516418 2.85255214374144 1.12431886565572 1.2190675585309 -1.03149569190156 0.236918714138782 0.44343081898208 0.266652662720539 0.0896678088756838 -0.159818532853828 1.39985104909471 0.498246643716454 -1.2982582099836 -0.370090979214792 0.465426447497398 -0.810133976942022 0.247046878588737 0.564182935295437 0.0610230312071255 -0.140571435749461 0.995147959919664 -0.344588374806244 0.522748796723267 0.338445474362415 -0.711713089911045 0.0358992963822361 1.58005534053356 -1.21329302545315 -1.26211870373645 1.32955290860057 -1.12123880163501 -0.131008057096729 1.78592448370472 0.641053670001214 0.0548876045020859 -0.723960641537773 -0.280198547630782 0.467287101418488 1.63861023978376 0.495784535632159 -0.2078182842825 -0.625197110957985 -0.64470185696714 -0.470114679190165 -0.732908270386976 -0.298323976049629 -0.230564125157162 -2.71304984851768 0.0408228427616133 0.34533089897697 -0.509383336513088 -0.383064888129877 0.709197853648994 -0.213005114028997 0.38359200435681 -0.331257056020298 0.0138975600672204 1.70867859858125 0.0289127061043733 -0.279283672924536 0.682410121145285 -1.25717561249047 -0.180770281125106 -0.535701065001971 -0.638764756266349 -0.527071742565473 0.296197255572017 -0.151052436551278 0.786821041107565 -0.569162185741615 -1.15286804100144 0.702575082996093 -0.184699914648823 -0.0180592138190314 0.519406481505095 0.327781578600355 0.33518222687417 -0.124361298949521 -1.23906429561606 0.495549736485282 1.03035545143808 0.407765406813347 -0.0885990431308501 0.688303467471657 0.57681102969481 -0.0753361932178283 -0.00803160784181247 -0.680559031637044 0.161147862393651 -0.0104415906783747 1.0508046843193 0.244542297782909
backbone 151.776043248839 17.161950199483 32.1040586656339 -23.7174715918405 25.7203303315989 10.6725905976097 12.2563730852057 29.0373262656442 10.9307930720808 26.2873701871558 -13.8057289766661 -23.6473964386886 4.87214698317309 -18.9827706680501 -12.5936552991212 -4.13578283686215 -0.775538109038217 -7.3242220679048 0.782258630323629 1.9685225751345 -8.38789576326422 13.2696776804955 7.692315133394 4.66856434037921 20.6947772766751 3.8629599311912 -11.3232041627249 3.17323057924701 9.41458544293488 7.86828680329225 3.11777580004961 -15.0036327239531 0.905430179126372 5.97865851050145 -11.3117133027168 -6.23981374654054 -4.91709166947383 -2.1024401170202 -0.0838847568945296 -7.18715608952998 -0.345013346591494 0.220524526200038 2.51149084968034 5.76911488812969 -0.899133672547947 5.6797642382208 2.06822436354387 1.06582625227613 0.671603043181167 2.06742648495561 5.21621817928146 -6.88296555107772 -2.75596641463127 0.728902973848937 5.91654141362076 2.04754271080775 0.0940753457546475 6.99826693048126 0.277214640868538 0.757934564523001 -4.56857119127814 4.52172802191305 -0.345290684933358 1.14559439265073 1.15144185837515 5.96103290467239 1.20089240889203 1.98525803259172 5.81760142273433 2.05106976869483 -0.377851487830377 -3.13429973609086 3.81821767205573 -3.00593662751442 0.0709434160847343 -3.80433785218728 -4.13428466680857 -4.14547016277774 1.16267869968039 1.62419537929825 1.63562555731208 3.52428789117123 6.94061664790021 0.538128726678761 -2.4182504918427 1.18637625292561 -4.31839302053142 -2.60968892188343 -2.15858873470365 -1.12733593671773 -1.38002040363932 -1.22421845420921 0.0202931151688997 1.56450435541133 -2.82227944070492 -0.76634155333641 2.04060700327781 0.628554644765848 -3.99490596919573 0.809603377077756 0.992177023305181 0.291357148365475 -1.48717836011072 1.45786796059333 1.02795974926751 0.899938746241148 2.59609948467926 -1.64110397004097 3.95637040728613 -0.223822114413589 0.89699892517577 2.23567423996767 -0.867111381361172 0.487637889501316 -0.527647751549907 1.34841406994464 1.20679749195187 -1.11475394842962 -0.51775858852864 -0.0618143188462948 -2.55457596791452 0.893751039058297 1.51467630717673 -2.08459159878691 -1.11741015503008 0.501645444844746 -1.92506065749554 0.964763933919698 -0.929867908053969 -2.77219936480907 2.76729393471648 -0.482464726676598 1.03214575170669 1.5356172409923 0.505845631351212 -3.01269516630305 -0.313332673256485 1.58266291574123 -0.384728173028502 0.655685887515886 0.0402475017245074 -1.09594670423694 1.52252168707602 0.38532110282962 0.457833529881647 1.04294101660204 -2.75054098951388 0.9311232382036 -0.718937219254527 0.324699981168086 -0.787509713459256 0.13113979231265 -1.09750238051222 1.14489547328036 -0.0174680372570192 -1.28017049234356 -0.464590109105873 0.523057071249697 -1.03233584072079 -0.52936837202176 -0.364820268682804 -1.56665255437009 0.707259612236222 0.166592956525022 -0.55193821042536 1.12308466091279 0.723159129574356 -0.109796418976895 0.721486194028074 -0.516150294757927 1.73051298902902 1.28246889331213 0.481103510165738 -0.261424233146693 0.11491160763514 -0.404445702732105 0.876864479914152 -0.171959343627422 0.573614614103977 0.446072875644974 -0.596367990447817 0.882233805992436 -0.0637176604595261 -0.00310978049978282 0.584184968350696 -1.1993719654409 0.784142208344475 0.213186584281772 -0.0330240371744931 0.37746928450066 -0.322326066577229 -0.230690975434691 0.643675163709609 0.0618928059020645 -0.554124846495022 -0.217062135383333 0.71458763409897 -1.17655777569199 0.467168170508768 0.789322926383021 0.488401904499905 2.16969332275844 0.516967270861557 -0.991269147079786 -1.61462196797934 1.05167840188807 1.57729020449103 0.456087866010353 1.71596517079731 -0.0847394957568608 0.137769031827334 0.752779649687165 -0.826756109152225 -0.392900130564056 0.761598035296608 -1.12468878818324 -0.430556208392458 0.133815824349845 0.00481465000761113 -0.34879792061895 -0.585201393371861 1.7860875324701 -0.623677583834723 -0.769606806723303 0.978918071571357 0.428665984571698 0.806049783996961 -0.404641432599382 -0.749233497450109 1.07571825761872 0.243319602440558 -0.666421138308656 -0.306278076034102 0.357338823696323 -0.598326677150168 -0.155492499909565 0.116152623526265 -0.441768092160457 -0.505770097001478 1.17756948287734 -0.160245020157073 0.847782185353087 -0.873962771746069 0.840903340167236 -0.63014510239381 -0.452161910063134 1.38957310060075 -0.942519368529555 0.255859322114555 0.980448270147212 0.511193980077548 1.09121597556967 -0.20518486827467 -0.055976835986947 0.184820829731788 0.355162048252233 0.12234904407805 -0.541659656841892 0.883755124393964 0.380110206227102 -0.284733349347277 1.07923735079023 0.000244375976159923 0.130282862152014 -0.0671708138885292 0.80761574024685 0.983500552838319 -0.780034562317496 -0.40466368792015 0.834001171679339 0.0853545747662497 0.173469849329323 0.619521989014119 -0.0543066002108647 -0.324418238402963 -0.105511414124356 0.777250974636967 -0.383292156438873 -0.0262420836159056 0.674574192549668 0.535900627463154 -0.388998598856949 0.261118242623416 -0.0758208394297289 0.112636838812186 -0.168875943412518 -0.0641363203320219 0.149195811014642 -0.074888456327745 0.541726935905437 -0.549128035631785 -0.262195855457595 -0.295563443253092 0.348606316114735 -0.266242255938735 -0.742021049250532 -0.124207209087027 1.06045573372023 0.222190111742064 -0.104833170280924
background 117.404773827186 12.3673340260803 16.8423515716099 -8.36722060256003 14.2128065194455 22.0661422516476 21.8564503823806 -4.74554767452065 8.24633732265571 4.55463515825198 3.07062174294103 -21.2780648409514 -3.6432872148576 -5.72997556478608 -1.20581892013934 22.6020097895912 1.12690259351985 -0.696314684333001 -1.61576092113445 -2.76106523831421 13.9583772648568 -6.50678473884993 -0.709110376569605 -4.33857437017889 18.6777316080416 -10.4103760845524 1.37214356097722 2.76237033155284 0.590899872270008 8.82786219097345 -2.15192375256208 -0.346040496919884 -2.75639103169028 -6.9077147124335 6.50770429969659 -2.20958953054129 4.86292958398048 -4.47081900001245 9.04498779831595 0.395359879854507 -9.31571232463105 -1.02351877412323 -2.57863375302879 4.91071919374334 3.06753736448754 -2.23373174170176 3.99586388575494 -2.82766863942064 3.33603063827374 -3.00102401695081 0.698302838923248 1.75735296754007 -2.21391261823379 -0.458816020292162 -1.39381924850283 3.11632598249164 -6.10449666919896 4.20945241543686 0.684689170970776 -3.25371193217123 0.331562192791641 -2.49730873623126 -3.08764333004259 -2.99179547662926 4.86559308764626 -2.93817829738981 -3.84346721609156 2.56922979305319 3.0267756509894 1.57039729738003 -3.10189785718221 4.748126887635 0.169761759209072 -5.64976500840978 -4.15760909287021 -1.16530875766677 7.30032273606345 0.767919074417451 -0.212439882932392 0.496262397425189 0.683577119599893 -2.12593518764472 3.45410896681324 3.01825590426496 -2.69051401829906 -0.667633314703176 -0.398005940770069 2.04159594651823 -2.80871563496282 -0.238129399433063 1.17649041039781 -2.37170016828627 2.45398245967818 2.2557792159649 1.87994446050808 -0.604013651980559 3.80846747861508 1.38435614943132 -2.25949438179692 1.23953565211162 1.22039695256302 0.918753436896728 2.58517084017116 -0.550289565892526 -0.521841867864057 0.86820997463333 -1.67035839805856 2.00153696100997 -0.103946090955064 -0.862445253921159 -0.790820643520587 2.14625232061998 -0.654379905003724 -2.07374132201103 -1.87563557288697 0.424592529324501 1.93096795685799 1.86883922705234 1.73628285460019 -0.130051261523572 1.1357261358789 -2.31407291581969 0.245158647754433 0.0724156004439789 -0.0523419228455453 0.0911918599841407 1.03885348821239 1.09623340423263 1.34118037804763 -0.0922518395697736 1.18472814113938 -1.41197049793456 0.119385122934395 1.18877469601661 -0.648257181847207 0.86736942146328 -0.273313606152934 -0.250529659520065 0.876819413868069 -1.79252601334698 0.0448119277804132 1.29743143923125 1.89339888254201 -0.763359080356209 0.788057116887847 -1.74989499579765 -0.426120680517588 -0.0580165388768252 -0.658967157982155 -0.78565186329785 -0.869532987954201 -1.02664993597318 0.69307827629104 1.66887364284615 0.28972046220743 0.608450290029144 0.911793692203503 -1.31227817535548 1.16310684239315 -0.830304862192565 -0.977700523408882 -1.01207036505874 -0.0568663667606764 0.0227003863760027 1.27523693507825 0.620148721318065 -0.433921002851672 -1.09392641943548 0.700314519937848 0.513206920905951 -0.82215867766508 1.22357145044242 -0.397911875626639 0.186466889312703 -1.21413818170753 -0.7342146474389 -0.227702447610955 0.426486129364788 -1.28044403968638 -0.0524095391499437 0.362478727980862 -1.14184201805844 0.13641067041488 -0.393762990131253 -0.196462683928569 -1.48399545780899 1.26212461760974 -0.283104240980262 0.466452653925669 0.206109828486025 -1.06518789192848 -0.0609358067701778 -0.0887792600949655 0.694371064579862 0.955248609332483 -0.24526202440924 0.327629937854747 1.0576327398587 -0.978306359313011 -0.710633080987537 0.556713964264328 0.306890447486853 0.00667020655026855 -0.59885534106256 -0.447734964054807 -0.193995686396849 0.0488382507345732 1.29341377356011 -0.000943159591624058 -0.501660115333429 0.524514134778598 0.134151536089232 -0.185828993443251 -0.896679418532495 1.13615277709293 -0.704137558154686 0.212782865441444 -0.436646543382962 0.859865057792474 -1.04762655953705 0.22333377926935 -0.898109083547987 -0.741103460881556 0.497712026331567 -0.121444977986919 -0.237087463045002 -1.06170437999952 0.814249050543408 0.330718833947628 0.593841950930279 -0.327734441863778 0.131034501719066 0.0584714664149597 1.14560742146274 -0.0624003490000912 0.908841372368473 0.237751342269466 0.636598824226398 -0.279842346550882 0.651102214786217 0.421741165338825 0.307572904821655 0.423844156544669 -0.468322901823591 0.576868210200873 -0.163088279830016 -0.579292618967486 -0.269935539781736 0.405119543719584 -0.257208428655465 -0.0649740109178501 -0.0068781510306423 -0.639612928768538 0.570587262626384 -0.451559975723674 0.247207551205148 0.066816117528454 -0.205164215595729 0.183327882788839 -0.375597773657585 0.322767887608684 0.497999275166013 0.499508773018468 0.796905641640845 -0.153572715586195 -0.523307872007553 0.636570337745785 -0.67905286990555 -0.551589829346122 0.52042722042826 0.618981009595916 0.162994085376189 0.048168967162427 -0.713289902557115 0.670331680884307 -0.140243279925555 0.455575382317113 -0.479806205229542 0.129740941899164 0.0434236589895336 -0.021029139651287 0.0803526017929463 -0.0104661845246429 0.387365704910815 0.313733769241066 -0.608530594754268 0.298686938220108 0.0793658520355459 0.292018679125328 -0.0595290396459872 0.230092484894261 0.097331567045707 -0.258173133689766 0.195452396079191 0.0952975789945764 -0.246125368157651 -0.0175934071454741 0.336413670472427 -0.514181187553571 0.00247152909143162
bagpipe 142.622497764919 39.9259327719157 8.1220208210741 2.47583455914808 -33.4048362464964 18.1145907265956 2.4607817804057 15.085099319392 -5.14073918309277 6.53389697638913 -14.9107245617737 2.43721748134256 10.6270833278163 10.7828295089103 10.6269269097443 -7.32539027628959 -5.25005056095578 -9.08017107456905 2.68348559687279 -7.45924205668581 -5.93847030718331 -3.97639049326137 7.17926549713937 3.97502332159982 -2.98901703449138 1.51409331120934 10.1799871356254 0.789611183006952 -13.5490458728467 4.51536055860298 -0.758137664809915 3.35343554030086 -3.2586116968675 4.59409006082329 -1.66987970303062 7.77747839210537 0.0121247667936618 4.78138378297799 -1.87155335933992 -1.07069591046519 -2.06796652111953 -0.367412848080687 -0.406836273697874 8.0002200388914 1.76000186423647 2.5421815257695 2.94373817771697 -4.23994458088884 0.468980128166222 3.8408451534848 -1.84079705112197 -1.35370090057859 3.16467120873974 -1.38609343586542 0.00629984398192766 6.63329944136178 3.58132629210724 4.98072307481083 -0.364767559200088 3.4064623937467 -0.570724834989169 -0.825217763207594 -1.33924063035488 0.699475232018579 0.817991110277769 1.42516354388622 -1.46073229960909 -2.45894692311443 2.06317730464343 -3.1887007628412 -1.15614247236131 -1.82150715684547 2.06074092721435 -0.641574927139109 -1.76612219171358 0.961280035318277 -2.61163712626269 -1.15469806126231 1.55745755327226 6.54382819865611 0.751634936162698 1.50005586914589 -0.875470886657541 -1.98348114120073 2.97684546023968 0.144571538234407 -1.3390206930481 2.3028632699634 0.311954758765142 -0.0616312527148358 0.861250529186074 -4.10337361205975 -0.273930825901426 4.01606701735273 1.50603016679904 1.81053585034754 -0.237407219509571 -1.7416203145927 0.170723340203773 -0.378339314409836 -0.710012511169045 0.11521612283096 -0.690262592913388 2.4680707995857 -0.417712413625449 3.17453004069902 -0.896591532576791 1.51833919294983 -0.607274717846445 0.035858655622274 -1.13817412821334 -0.105771721241105 0.952798242653086 -0.69007897280542 -2.27189586184712 -0.827491915321939 -3.01081389506561 1.66440495882747 -1.12194735180022 -0.287434681033003 -0.189599185958469 -1.08796499218638 -1.51301931625049 0.698427388681175 -0.417241610655041 -0.00955062201488768 -1.33072294384639 0.129306604925389 -0.54782008507153 0.307877420345335 0.880580551094222 -1.2402529812954 1.01711515943077 0.70709364050943 0.630168032917635 -0.688281045506225 0.980885149677978 -0.485749606086869 -0.439833665642801 -1.69325964022677 -0.103396966125995 1.66297339794285 0.263955864849951 1.08161421082225 0.117722788406674 1.02104568007444 -0.494402890854569 -0.301008945333725 0.954846401605263 -0.594468693051956 0.52503884046042 -0.189001535792687 -1.11540738361176 0.792012254297124 0.293525584768614 -1.32107367466385 0.193958708965417 0.172886848501471 1.54425415577212 -0.147888515986352 -0.142840089129841 -0.734043558928932 1.26886937851963 0.330197480805844 -0.28120601159153 -0.265358874502481 0.0809704196184278 1.08040149704697 0.116420083844805 -1.61786456312764 2.01560469510722 0.042246045590865 -0.296058371852253 -0.24332960893221 -0.255295816889186 -0.788405843992178 1.09583232427286 -0.893962846686291 -0.374405046773935 0.69222193524533 -0.00368300027242086 -0.970068848954654 -0.127229810834837 0.325155546700147 0.121436576951731 -0.481508263934092 -0.132247244264656 0.783582015065942 0.884800516880936 -0.0188860339548339 0.00899641182969733 -0.292091191607475 0.123350275290775 -0.295867650641565 -0.15247174958962 0.127653228813025 1.15595494894703 0.327018595994377 -0.211981664554998 0.332951152019177 0.144549205057538 1.26439549785385 -0.451611187063017 -0.133886558056776 0.18642662223001 0.264498375495725 -0.481590655638333 0.2803793943818 0.163609420761889 0.399681574019522 0.0930774036950376 0.511584046333738 0.0860482930001781 -0.242980836685771 0.477871752260368 0.186767101750399 -0.353923716883723 -0.061535480119106 -0.808206529824469 -0.299967869468025 0.0214718260907648 0.0610614060186514 -0.256868274335312 0.372976738266796 0.654135464805094 -0.489880795685696 -0.151444038887536 -1.07540281054493 0.482593742601844 0.114038606999425 -0.21184329942152 0.094917152324112 -0.422051693471488 -0.0645561696383899 -0.306594069092589 -0.302794994696067 0.507824253679292 -0.749101250686803 0.785030172404742 0.318958678569678 -0.0591316390769799 0.587183947825677 -0.290293455795034 -0.17580140842353 -0.137673267781598 0.31590481667382 -0.786637321494274 0.262972380941863 0.563172844406582 -0.773263707702326 0.463348533294365 0.463428304207591 0.593260958592315 -0.20023493059818 -0.123570129372119 -0.656892759035343 0.0701944617417337 -0.286726598376611 -0.393959820482909 -0.143965033239564 -0.316857579027748 0.416028897286007 0.592333356613752 -0.390639499363012 -0.317115170422975 -0.226297535454173 0.0954962913157611 -0.363708638943138 0.265391980098132 -0.536098857443841 0.340065809288534 -0.0431496826953384 0.199682659700192 0.39022742250898 0.144016051260086 -0.0922753397661047 -0.331169336725766 0.0894091925647009 0.186870809859542 0.254280816397114 0.487080025284514 -0.176537102910145 0.598614264420086 -0.0705124683483541 0.700917918820955 0.273085095272839 0.248143702756134 -0.0202333104865222 0.19103433709467 0.0324909146885368 0.333915583284277 0.104106615036505 -0.0372424413237067 -0.518234181399582 -0.107537535290887 -0.515756363564228 0.0153549524550977 0.171055338849108 0.0342000347362359 0.306666489888985
ballgame 190.760496062566 89.3256935176453 -27.5161029297723 7.37605908474765 -46.8240540002278 43.8492533592786 -5.44902030316884 -6.21875781385876 17.7167428111377 -22.4950333247677 -24.4574256470395 16.6274539303995 -19.6741055106515 17.9849098664266 -41.8958712006856 7.90863980998817 -2.06526452709691 -8.33093470524995 -10.8412061724589 -12.9934663543643 10.0219724277481 -4.16221612835747 11.4026128819415 -25.1353201943278 -23.5966026687747 2.90461769891965 -0.504603317005079 3.00677631489139 -0.96627647445373 10.6415823073103 -4.86981510065557 4.38253680182423 -10.6557587920474 3.17103232340812 -0.556683573197154 0.365592351022635 -1.90797582875398 -4.13284906603579 9.25961018558384 -8.13917376779586 0.686289447280239 1.52751797751197 -5.75243120646224 14.6937195186852 0.350010667125193 3.63010506990584 -0.766760063437036 0.507069105056818 6.62688968411133 -1.73613474509461 1.05184316689957 -1.33173053752505 -3.27681947605769 7.07095022447937 -2.04820291991203 3.39168123502562 6.49607505267332 3.64563260232778 -0.0598675745640979 -4.17573570914638 -4.88541310561017 -4.8327583654938 -2.41227577150263 -0.0370271842610702 -4.33480625001772 0.280783971049596 1.79000175707915 3.46451223885437 -4.64589124452411 0.0577404150160114 1.14385572531869 -2.12974807282206 -2.21962285018359 6.31308077998883 -2.822530690337 1.08075051016129 0.0776065335315232 0.572454263255691 1.03765298678542 1.70429747343808 -0.999273754000205 -0.800048816366628 0.0268212500469903 0.00318226400054967 -0.321995657257151 1.47110175143915 1.65516964588823 2.75037670055035 -0.978273235086194 -1.33898046895439 -0.772946698077606 0.275411286880996 -0.745182291342898 -1.98678357808016 1.81030659471661 -0.378762995871292 1.5894362092963 2.07731996871794 -0.993767527890587 1.86232023391965 0.34351166994642 -1.92291082135154 -3.188526534183 -0.270169277487637 1.29554068780734 -1.73794148040179 1.46283041592332 -1.80106647805742 -1.66764843046259 1.45307540544468 -1.73392185183616 -0.780785513501373 0.432293461989548 0.819262519924792 1.17995671491771 0.743628059189344 -1.61665526182588 -1.50881471216511 0.503627977311035 0.101254488162741 -5.08721653891145 0.48872650263117 -0.149718633510802 -1.17242173409399 -1.41247069130774 1.15282418547452 -2.65970230765652 -1.31272337649282 2.20838239453144 1.39145833146701 1.05660135304367 0.0586544775899776 0.122048148245966 1.5392342997862 -0.442696332909041 -0.861093641735972 0.581625414716867 0.358234078671779 -0.280181612692484 -1.99894252749648 0.687578937434599 0.904575315818588 1.03979196857344 -1.39262900898615 0.625583473781963 1.12105099017276 0.267565975822731 0.0739384016064079 -0.985062784220964 1.02263485493211 0.326262850960822 0.0153940759874093 -0.634439572979311 -1.31429172107523 1.09745106558855 1.90151612301937 -0.274531498799933 0.97145513063423 -0.121033763251599 -0.371374969640228 0.470885571483451 -0.654210319165061 0.26134192018655 -0.201154910371968 0.278480246443086 1.31966816263866 0.326479507995461 -0.860841779252178 1.50773618165099 -0.336886449840954 0.109905237082286 -0.0937572581901447 -0.214952361083108 0.556739483024773 0.664638402926605 -0.422447616597325 -0.301529242684079 -1.4712709870684 -0.0197594411779577 0.423008098268335 -0.0206890773654852 -0.221460768858467 -0.685049129649906 0.272323505525446 0.476393483820299 -0.121473962973522 -0.60884506043674 0.215641980771073 -0.210416899243732 -0.739871631500443 0.505245363982955 0.900525678016832 -0.341103611627986 0.836562739643765 -1.57418945332712 0.0671026477773425 0.63575891017558 0.263156708266458 0.862823922160747 0.234815047026859 0.126685217316799 1.06062320396174 0.515439939916368 -0.473744893051581 -0.237883482379005 0.786594594547367 -0.324210890029192 -0.236348206646468 0.15287425106307 -0.0593049122365069 -0.286383330638228 -0.354075532103027 0.842730813573182 -0.680960736918009 0.287037193962428 0.00710797295027839 -0.90308128332664 -1.18575006528415 -0.172033257954429 0.43398609262288 0.24945400013888 -0.634973378664738 -0.87535766134464 -0.596598095090065 -0.29239887093319 0.196549868355781 -0.494613708281708 -0.202651118268219 -0.759699512701696 -0.405090813322301 0.500853195976531 0.613703408258119 0.151338329607275 0.25790716521897 -0.546512600928055 -0.408274315109009 0.528370856239123 -0.281402777606973 0.358363485640935 0.0593674146068363 0.00324668701661571 0.0295945679739088 -0.672647905170167 0.125881054597377 0.0696502120126744 -0.193183108002309 -0.0768962912658438 0.440262918456299 -0.123919419742901 -0.12998595966124 -0.48402725791659 0.016257537076345 0.611210231215205 0.303975032661503 -0.34604410510761 -0.346333317954828 0.0845250373381663 0.573355398088416 0.322280259802424 -0.30611835956149 0.324651953084152 -0.431523369621606 -0.0876907402206374 -0.579053391045493 0.166028541216224 0.329981813601769 -0.473978645763875 0.164928613328287 -1.07126946366812 -0.51110725208921 0.287580755945131 0.326157580855187 0.00163244288564675 1.08677580995278 -0.281864678150778 -0.233128142172064 -0.488271352254925 0.413935441295162 0.756326117797561 -0.562018925121567 0.232804415894808 0.222831448807952 -0.809619326875578 -0.381948657174744 -0.165397076011271 -0.263851173646537 0.685009047519328 -0.286595282387463 -0.343109742376248 0.17838043724224 -0.41212222329046 0.571508884001364 -0.748508115771961 -0.338492933759395 0.497177477462605 0.341421069065505 0.112826910201362 -0.0807316186232699 0.225012623383212 -0.0291750547253721
ballplayer 153.574976776291 62.9521909924947 -11.248886641095 12.5827219425441 -45.7469012246075 33.3365494164729 -3.84534450751795 -4.9105541365666 -0.689959130308797 -19.1101248577757 -11.7441731275049 -2.48891374574383 -9.55312668802057 11.0435050494312 -37.8474962761379 5.35556078690607 6.15207103078172 -7.46882762285517 -3.41923667606532 -10.5228436127804 18.169092975196 -8.58773403606006 16.5455525599575 -36.1892167538939 -22.0006663183324 5.08818117525594 -1.78741051832074 9.5621365491545 -2.6193651960643 11.9460897033915 -8.27254302928685 4.50106210433099 -11.1310532681611 9.68580131120288 1.60072934088543 6.05686780111871 7.73438523929193 6.04949989451593 12.4050165121216 -8.20866178929057 -4.29670608692988 -8.32548557247883 -4.28313013911071 1.26879013400297 -0.733727704645533 7.00313243641076 -2.19426446950959 -2.41785449245621 4.49749650996727 -4.8855381374897 1.5742386137592 8.40079831128033 -4.64618148911935 0.149709818818814 0.707540958244419 0.133026745637292 5.9468286418875 9.62064847861117 5.56881386511943 -3.80619010122458 -3.08931036664685 -9.5040437473725 2.15328870556537 6.19205570936878 -3.11882961122293 2.43788865713391 3.36821868894918 -3.91402030552226 -0.760886704869987 2.01171592293218 1.21719330541203 3.36768831597712 -1.37400087257813 0.27646443218133 0.785849150083621 1.97743367589709 1.80258217792995 6.39061359731528 3.64423919245781 -4.01433080688156 2.54203283129339 0.96346953279661 0.400722379347357 -0.617314330452203 0.445857669233706 -3.67170164176773 1.50911918607571 -1.79137215654337 0.375484219942596 0.0932809534511846 0.489626830966064 -1.32210544905919 1.04720477841967 -1.16387022439179 4.35409016785006 -1.30667348687694 0.436872056232612 2.72010489343791 -1.34470185558712 -1.55330459283654 5.81105167886801 -1.93114790158224 -0.680580252874634 1.42901654534028 -2.60538755268669 -1.19016015856505 -1.83049563759329 2.87668261830345 0.127725168177384 0.222676122019805 -0.910420508479735 -0.787713223703327 -0.971388306494414 -0.206601086802249 -1.16428566347533 -0.306468932337879 2.63240009044869 -0.696737814335395 1.05347250107575 0.658210980972024 -0.557639009307086 0.282097140073554 0.887806002527404 -0.401345986563663 -0.040249275425635 -0.532008142337274 0.979688704325681 0.816338990664235 -0.725639491428689 0.427591778363902 0.272805459339218 1.22964384202425 -0.213230073223723 2.96352366823509 2.93800210657577 -1.79654169395286 -0.514688047090941 -0.616266217995534 -2.60547022248341 0.0931276109193645 -2.87003954812901 1.22765430216172 0.272957392084678 -1.98336574486453 -0.694789783494443 1.33608193181169 0.223965722375738 0.672461689461502 1.30674952303501 -1.61890606808532 2.05549897070473 0.868457854883106 1.12409112932878 0.333933319571127 -0.0850733599426052 -0.986190794792159 1.82662996547918 1.48957034200757 1.62372289246035 0.792143684601363 0.198447117105387 1.48520957487041 -1.17603272550119 0.126547733794208 -1.54453811558777 -1.84425901285803 1.53888830112564 -1.98704419707867 0.59025353403851 0.849706571969119 0.846324645147117 0.436282158917262 0.554453618802079 -0.634833231578264 0.0705999618331913 1.24813765126292 0.191793781680278 0.39693917071941 0.0467224180685081 -0.974826431274095 -1.18447741414327 -0.0959147835370994 -0.0882578416787283 0.879780434756173 -0.315914979157258 -0.508781788342772 -1.28746034816729 -1.40587101498162 0.331395556672304 0.824268691338206 0.594262844632996 -0.0221436796485551 0.821803649137464 0.409494642332724 -0.916237320786812 -0.737702395944538 0.420907610019087 0.0463465149073051 -1.79054113785724 1.04163617135813 0.24513859069612 -0.103805395936966 0.477883942214918 0.79387423721808 -0.352114242044348 -1.44873779697765 0.180026370519077 0.0172241552444597 0.219897699840657 -1.84094879390141 0.811230960379167 -0.796308375433269 0.499840893066643 -0.519569746631147 0.0681854156843888 0.269291682010601 0.0644017181949428 -0.353262701989278 -0.688404817860144 -0.276552126101239 -0.0487242193852392 0.0614094519376839 0.274409341598269 -0.0457294782357405 -0.0509124339871891 0.163545781638884 0.490647333251308 -0.679864491158794 -0.576513177610247 0.282640377867288 0.184323252339711 -0.852494586490049 -0.582213548011267 0.740874584389591 0.00991787666830186 0.89053942678517 0.0757747146864166 -0.312562483287096 -1.41847657864778 -0.2308584677689 -0.747744695754284 -0.861211270336429 0.858335274632751 -0.13770055239158 -0.567295951578546 0.248508132894143 -0.127516696490225 -0.346693199185205 -0.289921750553065 0.0488753037698193 -0.306909121685055 -0.872182072902102 0.637842041881537 -0.23259820283744 0.250687662624268 -0.472672176819061 -0.28482399748861 -0.0379070220100511 -0.18049607882654 -0.306852765205661 -0.136991641559284 0.842449225239277 0.110916604965188 0.177264938315249 -0.247562382384421 -0.410438196956762 0.357329286494392 0.523552534232649 0.231935794958937 0.0230671823031492 0.368637852364088 0.0956592111787544 0.609308882218625 0.0670711710474115 0.0273551666146355 0.0469017201492831 0.101262240276185 -0.609756357310067 0.0908991945198252 -0.400124065317754 0.616130155479842 0.552379032091814 0.387327716659012 0.185318160786412 0.707650790174884 0.207740657527258 0.373605770239102 -0.246485222999768 0.0197222712503657 0.0254913801984094 -0.0966877680396921 0.0548578157730793 -0.0474351177395022 -0.137868434744185 0.212284796834479 0.234607494849198 -0.423359614043261 -0.10840538288603 -0.115259007972073 0.506363511378952
ballpoint 163.182575356236 -36.1740634338898 35.8832104078511 -21.6214922689388 -24.2103402876788 16.9962406453061 39.4273193050806 1.50669316979644 -27.9447600048216 1.7818654175889 -5.35763047193995 -4.16496622337342 -22.8473375394694 -34.7341152945712 -7.03225918369405 -3.603513219471 2.85222669845825 12.1708550553903 -14.1081343337586 1.49754910324081 4.84531281795155 18.2044107814764 -2.856376345315 -4.68204150953339 -13.7659876611354 1.40444186565874 -1.71990958108089 -2.98302534791221 -1.16730913660823 -3.03170314304082 -7.06493996769356 3.3443204242583 5.47656799196363 6.53819596371188 10.2733283916619 6.4628646821723 -8.85786932800146 -1.0553932170859 -1.14008829044113 8.42619438846726 8.72697248438508 1.61740318506029 -4.77546751215656 0.201991736674064 1.51281493521375 2.41918391735934 4.91508128300875 0.881633800574401 -0.530948129694532 -5.50806742150972 5.45263315169371 2.45933221308501 -7.84858891826674 0.851543982095131 -3.33094911536456 1.51752304969236 -8.68569419616782 0.784833089358664 -4.45248604031536 0.844781463629703 -4.85779025838364 -4.08577104058371 -0.554702053984133 -0.377308233830034 0.664949918462649 -2.06678459782416 -0.814210003219689 6.20707114613711 1.8524885207725 -1.16105400743205 -1.12498851255385 -4.95126944870485 3.04986378369162 1.826692472492 2.55045620920945 0.692242052271114 0.322550994656345 -2.16212791151994 -5.59983824008904 -2.03190390998599 -0.347822287254899 3.1955929091899 -1.28417714550543 5.04456624414455 -0.203305468700198 2.08974417999984 1.26483008263249 1.15394641127438 1.9542302776474 -3.63693250234989 -2.39776644661512 -0.0851333337668884 -0.899342817049081 0.721279825471588 -0.0478383819543709 2.83365089071035 0.0442402278798906 0.875224003129317 1.30037341814593 -0.708213233716238 -0.290390863381614 0.80099641300473 0.024376515333332 -0.378478391347087 -0.431325847368107 -1.52729051123304 1.16609475119442 -0.239218161138506 -0.354801140123457 -2.67456320518033 1.27406099481044 1.31691930580822 -1.57162559998447 -5.06149421952793 -0.121042697352892 -1.7326200674015 0.00645653372921657 -0.189840814997065 1.05844279737353 -1.5856852010758 -0.190157432674324 2.18084788874938 -0.879262531847914 0.957618508520324 0.910417787231072 -1.64102138013598 -0.158431491245777 -0.448710663770712 -2.04417122964079 -2.38247869121533 0.425448860683053 -3.09091035518911 -0.976360042512802 -1.41384647217225 -0.0986544486320909 -2.48834055470127 -1.18615823051456 -0.146156530665832 -0.495305526855297 -1.81071681744533 1.7276864773118 1.15186660732282 1.0044479899951 1.20999456340035 0.590392080946413 -0.214289542568681 1.19080541422137 2.45188749252852 -2.35260501136604 0.361275253348347 -0.525455107873314 0.826184649292471 2.27091519952605 -0.87370266771876 1.06162554595805 0.165993139223504 -2.22866791448592 -1.53499610870602 0.0994966659203914 0.0809547734721341 0.0218654575086412 -0.856093637188308 1.02887835911139 0.0863486884318763 -0.0866964707987028 -1.26687478309027 0.660280247302525 -0.464485800691122 -1.31547064888169 1.05447064740286 -0.77543516563156 -0.559967079113459 2.77801000878386 1.97268261784175 0.92928249707877 -0.823703799604461 -0.351601321566393 -0.398214713707962 -0.718194041591391 0.193657207800443 -1.63891494853414 0.455304647419419 -0.437709606299323 0.182324466355753 0.685138544514854 -1.94171880647912 -0.544910555603379 -0.103596995374452 -0.907099234931198 -0.517287908572809 -0.709296065514882 0.727567962684519 1.6702215933917 0.500366606905568 -0.105927375863418 -0.516599097862173 0.274002469369526 -0.384003484714522 -2.12475268463451 -0.466359593401714 -0.0444990153131342 -0.289771866936228 -0.560100660390472 -0.00816424353516944 -0.117229703465348 -0.877339447173835 -0.419143620769342 -0.0442102405564048 0.933670132196666 -1.19873320214333 1.14453280752394 0.403229030121962 0.0184514022001759 0.67062414055043 -0.782298978162318 0.618773849835279 0.948185673181209 -0.270471950907067 -0.0736612934299217 -0.617593925632207 0.426929703605604 -0.818019559843861 0.285931055197092 -0.0814418000263378 0.56575646984492 1.40283417944747 0.389550865203545 0.390131137350928 1.38596504439252 0.0861907924372076 0.180372679805927 -0.83351330037247 -0.669305005619621 0.82886658090138 -0.611449140915912 0.665976887538075 -0.0201738966647923 0.104510476801863 0.142560607573274 0.602938164150129 0.062224112965791 0.590852089759176 0.547259631402363 0.541768423910018 -0.369979889532074 -0.406319966313572 -1.34232735724502 -0.113002364441644 0.469917048450989 -0.0807574510274212 0.160101310303893 0.771270654266185 -0.557554356207896 -0.817042671077084 -0.769204837862196 -0.553443265569237 -0.277504505079033 0.487039979290902 -0.217792106131253 0.153079337382597 0.0197872275922407 -0.116916323291313 0.10148447429139 -0.343373423063466 0.491992346091859 0.0306721067610236 -0.379282947217216 0.0997004136845953 -0.230918500556601 -0.314187275413613 -0.187945263638915 0.194092256173171 -0.464203981283375 -0.0667549485372312 0.10373084036739 -1.03075101591176 -0.340290965225496 0.0364536263802026 0.530069170468045 0.352992031919788 0.737721306542127 -0.403535113076795 -0.622255682460166 0.871161996879482 -0.152541451295995 -1.06064822683151 0.534248215530719 -0.313708490977956 0.144003157869674 -0.421897746077411 -0.109929975786901 0.11193274398201 0.723946991222329 -0.0972766096380296 0.237295324476113 -0.294851958799718 0.151157466341306 0.465165358565552 -0.082407203480941 0.389335501102621
ballroom 165.210479266597 79.1284946884083 -0.202863265926643 35.7149895411223 -3.01550893196593 10.992533404501 9.23345875251375 11.6635628631253 -9.96119881265109 15.4863216007934 -4.6603286624381 15.6322883104147 -3.0027158547523 19.6711742467368 8.93776084284691 15.1195412275978 4.95583396543422 20.3375360773093 -5.9443044333135 -8.072745458544 4.77511541174795 20.0818767819006 8.74193428186191 -7.51753544586245 0.228069801284001 -13.3081161208257 17.905138036796 -17.1215212302028 3.20762187605687 2.79145322170966 1.76355636867151 4.04070323632027 -0.502602537729044 -5.39012754066632 -0.419166244616353 0.0966449909979344 0.676229178450364 1.06969189687891 1.93037305355874 4.37505174091143 1.24167746082677 13.3166282946192 1.34108958836382 0.968433403103837 -5.63563236983074 1.91481744971395 0.975923504939484 -6.75815913758008 5.35607557956333 -3.46274853349342 1.23084847313331 3.88549793081893 1.01835908793325 0.631719063516625 0.715304482547549 3.32726140570542 -1.36877191757052 2.21958906906703 -0.962521695760981 4.22513480825549 3.05361518462547 -1.21592623751965 -0.0225752985363437 3.62805034893558 -7.80617075376284 -4.41163375343561 2.0173787744128 -3.5631718250032 -4.67849807860734 -0.640630749677226 2.57907009912911 2.43733039824517 0.939578067840711 2.44716811470404 1.04875081791242 0.234806459358909 -3.51189132441378 -0.578294114382363 1.50906126831107 2.0810064200707 6.38733238566436 0.502348029135354 -2.50960377983578 -4.87636094029335 -0.402866053740987 -2.13264038027289 -4.18947385295607 1.24161711551008 0.721425093799254 1.35263121633656 1.14896423696994 -1.07052414171869 -0.662155315715888 -0.518649597965663 -0.678810746858135 -2.0705259861885 -2.22661337860686 0.952050782958861 1.22968615087548 0.620534178960418 -0.370949112235414 -4.01151291201082 -3.33118855459866 1.27382357089756 1.38216575141211 3.1594138787088 -1.58536236984764 0.906864032856122 1.42617933954732 -4.14302018710312 -0.107570904072074 2.57573311613349 -0.948121257194824 -1.63233993480284 -0.212435708763617 1.22549709932635 -1.48909012612684 3.6343644058388 1.63874118212054 -0.192969532877984 -0.420476325614326 -0.477870152216543 0.715157765519018 -0.224545000464746 -0.740631328933098 1.1404811542717 -0.908001191841576 0.912177973266715 -0.477022778897233 -3.68495718927884 2.50294988403849 1.49629011567811 1.54817648430017 0.364294679465792 -0.953593277895756 0.00323695143621569 -1.63228585741503 -1.63836793375528 -1.21002214475687 2.65027400512422 -2.59984464213847 -0.476397025848477 0.503761280669185 0.885235257231583 -1.90627206467486 -1.70717595715431 -2.26514534068295 -2.34600733452774 -0.866720994412486 -1.4307943336962 -1.82845124672127 1.29778370123234 1.21301483330903 -0.747294401034969 -1.21279469275561 -0.230975326220631 -1.01179866746496 -0.0380024807853818 0.451631976650877 -0.897322960371266 0.0397228398217689 -0.962758657487261 -0.0801388503808298 0.264250649497429 0.554355178234317 -1.20299635705744 1.16090530631088 1.45576512663742 0.304407491490642 -0.39769931631262 0.769581277932274 -0.424993043444132 -0.39206195920287 1.08892183535911 0.90419045297357 -0.51130668525047 0.693756609707486 0.330230728537207 0.606392751291764 -0.832854829809463 0.431725680298299 0.280429888765358 0.217033413897275 -0.514274939159865 0.171298919301366 0.979399163624101 -0.0401007138061469 -0.341060095632995 1.6370272381554 0.409592361307232 -0.233069712790079 -1.22286388764409 -0.579000941644212 1.24912413713393 0.312226057472448 -0.0419413612679002 -1.05085445784103 -0.174856334536715 0.0709582331182854 0.463981832084958 0.909866709511916 1.02563366128972 0.562031206024191 0.194238772500587 0.0196832364180877 -0.259971478493297 -0.272792529002774 0.373391771146401 -0.782432090971935 -0.293446609890619 -0.798658288715809 0.624279929074382 -0.525281086967126 -0.529924214246817 -0.722698522221284 0.853991001712996 -0.892337037674549 -0.190577955937223 0.578326170099552 0.375991288741829 0.106296353913202 -0.558998226454261 0.134571213044237 1.50419898573566 0.956741436118316 -0.672997287503891 -0.264223685396808 0.860220341286303 -0.356105039783543 0.66037569657844 0.18227433673277 0.100611169356328 -0.498856571949516 -0.324250603278114 -0.0195077793973412 0.366928592010587 -1.13918254097686 -0.0664025204602318 -0.335054843279148 -0.191189365382763 -0.89591917426758 -1.7260200527085 0.178310553824266 -0.357924658780965 -0.113358274617187 0.43122552966983 0.326964243532543 -0.204546017130752 0.113838771101374 -0.724236442100999 -0.225225615745594 -1.32839398455239 -1.1417999588094 0.0912103923233272 -0.311763211496356 -1.04749945330095 -1.52864158660772 0.546902902000433 -0.164370295224215 0.696448198031488 0.453005643421789 -0.721575879372455 -0.0761963646692886 -0.798275742953732 -0.486160645638903 0.700940950941496 0.799657930664652 -0.682590624895479 -0.0895608197896968 0.0234348822097802 1.79619055437859 0.395112800059977 0.647052914437143 0.158337400761352 -0.0698260241757599 -0.0783754742052421 0.0649189738401925 0.279914265274643 -0.356234805556773 0.642115920906251 -0.0894200606131157 -0.73489099884364 0.669285490472379 -0.745477246408176 0.0185036139343515 -0.596773178133874 -0.974012787190621 0.598736625129383 -0.674135913227524 -0.574997282086908 -0.636110362531478 -0.352446194753393 0.259577859459128 0.463497886326517 -0.536254993729575 -0.0331079487334489 -0.36936808672908 0.14993479925336 -0.205952513967775 -0.0360311733885842
barbell 162.184982134601 41.9959476758212 40.9000934965422 25.2520766648732 -19.9910267887626 9.21566969885048 -12.4521384786152 12.9930725088267 -10.4756223958647 3.15930887903748 14.483139966059 14.3396240289565 -7.55708572612125 -13.0048228670135 -1.76752784524132 13.1410618790869 19.7182328813098 -3.44942622321749 -6.26207290802835 -20.140378990246 9.89219312731896 -7.32167296906233 4.0595701950825 12.5196511579631 -9.7433727631821 6.01540900117023 6.12577633387799 8.97071968889574 7.2804495428118 0.126007005667712 4.85309919503618 1.57724235937089 3.12596148081698 -16.2654793824391 -6.06623730886306 -2.709980350703 -0.687195831930432 -4.18924088156728 -0.841899489712607 -1.04635819081276 3.92506447963714 0.70773583565407 8.85858760620473 4.74319768761344 10.6248402557312 -12.3702957370984 -1.45329839968838 -5.92605639271256 -6.89462963666303 0.761953368735022 -6.13562652776299 5.32114346868019 -1.59133769689115 10.2828914521822 -2.89371287482523 1.4819813849238 -9.68163610441185 -8.36733072111269 3.58574204350908 6.26159127998496 -6.91338704725183 -0.861846625177405 2.13997629725072 0.458594762533208 10.1177168192604 2.19889203309586 4.25455845296518 -1.17843009854052 -5.53519404778431 -0.287744743741085 5.20817229367749 -3.1457842581589 2.65679388929426 1.7910841789319 -6.32764955528118 -6.88541395834691 0.660194195696151 -1.16126407038384 0.817928331684908 3.6420900462981 -1.83673715596958 -4.42495864348085 2.57114215697495 -1.127597212179 1.38455385683431 -4.85459526452114 -8.85982873967185 -5.46139812609204 4.37916973914032 -1.80760528043554 1.35108314159558 0.368971577265544 -1.90515183915742 -4.514292147556 -5.56954183498317 2.90010967691252 1.85672936718129 1.46482339531927 -3.05846525517107 -0.913177816060988 -6.21113939304443 -3.85440052514022 -0.0238652259989932 5.26392487699005 -4.75126715305887 2.93889869308403 0.429903955874339 -3.43124158392087 -5.00266884936238 -1.27191623937032 -0.994207891345213 3.44937520031681 3.57789555621119 -5.11393308468903 1.35507991676158 1.7114070565598 0.804019785171825 0.557261978786637 2.11095347915439 -0.690955092203514 5.01046940629886 -2.19116861799678 -1.22616528653714 2.84690442238937 2.47250845582423 3.25885287790314 0.64868144070212 1.06730484168074 0.721819761684807 3.5767235836123 0.000170864215140863 4.01850152234476 3.05593647977417 2.67267630241356 -2.19366670289312 -1.81956546687262 -0.00967954441167952 -0.325747327040439 2.08400576109453 -3.2861326462727 1.38452623009308 -0.575674745413041 2.16545723678263 1.22657064431969 -3.34107491694484 -1.60371090008901 -1.01228353766976 -0.600434208583444 -0.130125371397617 -1.17612510783821 0.965648455698205 -0.351588840137002 -1.06658233395458 1.45066611130115 1.09772345200045 -0.156452627327083 2.18483028158669 0.524858850178422 -2.46154090667663 -1.89041602116724 0.880569441660814 0.922527797486488 -0.26663568748449 0.646571137594287 -0.438752575041059 0.78106719621715 -0.872075866233675 2.45992297057707 0.0395045035842318 -0.427676926699764 -1.4508780034037 0.808544445872565 0.719287351090654 -0.205119785788969 0.653008403718874 -2.00044721229194 1.601309181356 0.683259083420283 0.504150766494377 -1.69517790609545 -1.69149786805004 -0.766965222750123 -2.57589983382779 -1.33282153900551 0.501522474341003 2.77642955831349 0.131091066811621 1.38682322117209 -0.758714610266784 -1.29641043885904 -0.366736866423799 -0.0857282119954169 -1.07867673777779 0.0833885142426348 1.39871079829751 -0.514471796440523 1.39118904388568 0.946847591631201 -1.37290863573025 -0.115761831195016 1.33080844951548 1.05375167895034 -0.995555946264351 1.81971242535105 0.49353470538208 0.0424742415532791 1.78546444705544 1.72208809081602 -0.27984790552594 -2.77363123765594 -0.812777872815401 -0.724383074735443 1.18707637485419 -0.0834565167140001 0.458014124038731 0.0914842342595964 -0.099158918449245 0.110008000487699 -1.5001910473243 0.302890809627542 -2.01460973692028 -1.76972180321071 -0.876704051838281 0.236894568149974 -1.32129309976166 0.193262568962871 -0.0259604588659087 -1.00818829106671 -1.5411563862018 0.612286935509928 -1.01085274871954 -0.88599131121958 -0.825350710838177 -0.128704237502501 0.759165673915358 -1.04890680141956 0.830669247779444 0.410850592019018 0.0363203484411864 -1.26573367206214 0.509166926428937 -0.163545910157527 -0.770958236081227 0.919680366015593 0.610221448351779 0.788164800965451 1.03169548714497 -0.945678572504941 0.642682733753937 -0.0996770022746578 0.107797909246575 -0.776597567062135 1.4994335882555 -0.0218697112702623 -2.11104956069987 0.751469911721504 -0.761674590887114 0.826356674695598 -0.847913721134977 -0.785633557820317 0.706200464368143 -0.0289469112644296 -0.657625616581309 1.74759537179956 -0.326778714664064 0.410663869873763 0.0603041738948023 0.279757153656993 -0.00609983639548357 0.574112542539853 0.847883733738232 -0.55615013796863 -0.170167343358238 1.59615572121999 0.140483645716473 0.709318513833046 -0.459138593334507 -1.14568890277875 -1.00846559086295 1.31388800180617 -0.623400392096278 -0.276470905713324 1.58062421832203 -0.590014584279441 -0.242442474087762 0.175808839937313 0.166784194107687 -0.0884565421748922 -0.22718566690718 0.217598501740738 0.489258356659148 -0.513102025347247 -0.548588372791851 -0.120362626235831 0.751234656599928 1.11231716457913 -0.346020432791471 -0.0802858862116596 -0.336084007540995 -1.56556104265661
barberry 153.259122252016 -13.9688366875645 -75.6427662312026 2.35815639869617 -5.91353873909728 54.0616518492848 34.8842157123535 28.7869187350152 14.3223441464411 0.0159038402228383 2.19394172068871 1.95387031379302 13.6339953715157 2.75537402393717 -3.25057795966283 -1.23377221911571 3.00340737145946 -4.47003882391974 -2.01639488891519 -6.58125471503507 15.243218356646 -8.99618251178228 -10.4426094519615 12.344114997401 15.3782666208305 7.93451355114231 5.93876512781371 -17.5218926603841 -24.0965443962028 -8.14050065574663 4.51885090702553 -13.2088496692967 5.23486277206056 13.9057427057544 0.168520679019018 4.84737785252338 0.716401069383918 2.62601515798923 -0.493046684424955 -1.36201394344211 6.98070909884922 -3.06764205238475 0.923499785464391 -0.480202487279599 -1.07271775390216 0.536605753903218 -2.54574160123229 0.0912860784004138 2.51276221937041 5.1020641192606 2.48214159606242 1.13044910828765 -1.90097678439463 -4.02164279914069 -6.25398956516545 -7.04858816625601 -3.35767417886036 -5.01896571788252 1.88661463074745 -0.967162950288495 -2.79802843429468 2.57807078924585 -2.08489417688833 -5.97511460571978 -1.96529018737474 -6.5426085872638 5.58547770715141 -9.26537297404234 -3.03746220873451 -3.19909766346101 -4.63764476524315 -2.10089008593985 -3.44226034948018 -6.27281069337288 -4.35611640154232 8.0827478210571 -0.0532913077029736 -3.51143073670719 -4.12789795639744 5.60733898446264 -2.79181449952515 0.923383515267568 -0.0404649867133305 2.29955376144978 0.113609368038189 -8.44011080092201 -3.01625697424459 -0.264473946675235 -3.25324814973801 2.58913303343473 0.255539571594924 -2.06610766428052 -2.95485044160986 1.9059759859678 0.286291422929626 4.80284504588975 -5.39017106127161 0.608308753701037 0.265859822598374 4.74261771685121 3.31934627871424 -0.233909340724929 -2.14400987916245 4.09570490769301 -0.798103369370333 -3.84255437941489 -1.25157388635662 -4.00182548625515 0.59586203369009 1.90444569213084 -1.14104771914093 -0.359938901053478 0.800783695780009 -5.42687702919319 -1.06802084966676 0.328920346538742 -1.87656475015296 1.1696236660456 2.18442127264983 -0.7306241862808 -0.21902183913891 3.22225020826678 -2.18937907333566 0.260851570322937 -0.724090629899907 0.531810785005184 -2.26877984216669 1.30869086672054 -1.1117661925278 -1.40381007864617 1.80153410873936 0.113003494953172 -0.0478620946727634 -1.97752650837519 1.57421898213316 0.535694804047589 1.68426545139697 -0.421985186330791 -0.668590485625421 0.997095445525216 -2.73996015797482 1.1909459473039 0.474925060440129 -0.470836128541581 -1.47820646259613 -0.653843357917918 -0.857019155617107 1.02699254354225 3.04579238773468 0.0899321569707038 -2.40662936286416 2.0926234065466 -2.42935692017007 1.73131271663794 1.7051891420597 -1.95929050300552 -0.125377063719594 2.71044363476999 0.616590448460664 0.784568727202327 -0.520994945485174 -0.574783697166325 -3.12403556120233 1.14290425911706 0.0944163272886258 -0.81745906755889 0.270922754908449 -0.180501494265574 1.18852315439117 -0.275941634652552 1.09909118187963 0.280014556146373 1.00512648615436 0.570981524350819 -0.352109618332467 -1.18423598681989 0.665351672427274 0.459042434842565 -0.918901828780746 1.91593614901386 0.120860265922667 0.44747849738737 0.958236156241546 -0.217555490500559 1.93441009486712 1.35785746325558 -2.21361882683106 0.655047435640848 1.01925773745113 0.941000121817269 -1.07385104737338 2.0384428696685 -0.0172420931290938 -1.48331441352897 0.564570463138743 0.700404750652232 0.0479509725573515 0.982927528266271 0.633001344981487 -1.43476000782979 -0.777923169857366 0.694659592268525 0.511083475514023 0.104008599615929 0.268736039190175 -0.22944344230579 0.381158813480649 1.14966040522594 -0.263184445772929 -1.33747903705952 1.27291217759104 -0.0302481452436259 -0.897014461194079 -0.768408035272726 0.570700691351459 -1.29878037028729 -0.688685788179673 -0.607246445526838 1.32641317250124 -0.0699826975568689 1.5305885565234 -0.592395988381219 0.0967450918067844 -0.216506952196678 -0.61094607339159 0.446693234008996 0.363404836099692 0.297540736969749 -0.185823264293901 0.476517511364612 0.965600237725394 -0.648716862850337 -0.453302177205837 0.583674663221057 0.634778018572026 -0.414711109046144 0.110181269729872 -0.185741979210277 -0.181732060405946 -0.331530013688205 -0.815445352075648 0.159265724321092 -0.673882413868384 0.680338673565166 -1.11463421127304 0.277137229350374 0.380607326535116 0.0996841023726143 0.347801942729156 0.195120329664955 0.263871369597426 0.58294328209904 0.23774704389964 -0.118715626397233 0.230935599171959 1.02691394864317 0.112959941137609 0.304458774351859 -0.468107937811931 -0.496930285559708 -0.641603753572463 -0.532640961000842 -0.0464421292305337 -0.640025720941696 0.524940584624798 -0.0437292367210499 0.207007371035082 0.222313057466073 0.225980951454196 0.160334864894759 -0.119724993799252 0.989728088589588 -0.655246536863899 -0.177495100294737 0.393763810505765 -1.06925405127988 0.653882451825695 0.75660788574818 0.617035305836678 0.146417665841594 -0.0426346477494746 -0.125570225838305 0.0495420779788001 -0.138654845603163 0.4146838354593 -0.207081927324309 -0.57443860021319 0.00923136731147629 0.097025155402233 0.645655007550869 -0.244706107893802 -0.0637688156448389 0.0537550691509332 0.0634605348565429 -0.0475282259253655 0.372440397163538 -0.0566499770709257 0.186247877924227 0.11725852129846 -0.25025083249936
barkeep 138.734474879317 61.5649920676013 15.2834349939035 49.8375675729274 9.37733397859415 0.707929754640136 7.31612099285624 10.1700100414118 -5.03007545881856 21.9530115671194 7.76082716375199 -8.38219536027192 -7.10216061447387 0.138560125813043 14.5642329409875 3.58080768389852 2.07813706333854 -3.44879491053167 -0.80134007526524 3.43686266225718 -4.33659228035241 -1.14255659443709 4.94025950617061 -4.97128036638525 6.61930799509533 -14.7865368880444 3.53391721358558 -3.66059984765507 -8.14294639933278 2.01089757739292 -3.65943902227376 1.05575853415671 1.75324418442952 -0.0554144969836935 1.29256876320735 6.26208146065881 3.62365063374853 3.63482238472988 -1.17092911101695 -4.31214258824723 0.746510787486236 3.04031832170795 -7.34810665442898 -1.16401536911429 3.94408327154392 -1.51260607768925 5.15973194881643 -6.65622307117359 -1.31426948173545 3.24541348399591 5.86521977868885 -2.45003594134141 -2.9456677800626 -2.39251154590765 1.63373473824853 -6.20451523017524 2.35548266127696 2.73554428458465 -0.716693946298601 3.10590448119571 1.93297332338829 -6.45340065223643 -0.621198515302747 0.422654609807794 0.755381266613568 -1.28451993606591 -0.0169097974466378 -3.12629788697373 -2.14580795580472 0.817343953440019 -0.948538442384639 1.28969112732552 0.676873638475315 -2.23434520655017 -1.62581176247619 -1.23785025497042 0.389369707399773 2.04921430971751 1.14110166984407 -3.15687441531593 3.09058835807284 2.96171348283085 0.991000518756769 -2.3003948479285 -0.192383346408298 -0.638005894494576 -0.773972360199268 -1.50540695677832 -1.58667013135736 0.0390373591549764 1.32602927609936 1.93399248243275 -0.279317964633448 -0.070676719236646 2.51186976342209 0.654288406948319 2.88552399187968 -2.42712855360697 -0.585695729424179 2.12829078307544 -0.409643257557861 -1.82390343579407 1.64700967868607 1.33645108781169 0.726223247299309 1.17422199340827 0.786213817049756 2.8543304127004 1.31514406435802 0.0638625567367695 2.35351361325596 0.132554148514591 0.947895493326088 -0.485251377820046 0.730484346427411 0.926343799332971 0.0196654859167217 -0.685757634739191 -0.203443320405149 0.815864470432108 1.49138879038277 -1.37028120971849 0.169677039737451 0.118148764347304 -0.785000919142841 0.412754771284371 -1.38798424655357 -2.68542878639681 0.2929362390345 -0.198167567056099 -0.00178127614040723 -1.33650329860389 1.19608569596422 0.334303098169659 -1.64888741883888 1.37996731052718 0.141213992391103 -0.113208584751018 -0.82513609689428 1.24186140927683 -2.3398523609684 1.13334219767166 -1.47229133373237 -1.17426963754856 -1.68548998144763 0.60144816214878 -0.906381108287438 0.164633637822392 -0.25897704838571 -1.35292263811828 -0.0617435742652521 0.0642599905706902 0.804794995096551 -0.944361456919122 -0.723714425827186 1.76495727172288 -0.0659117752227333 -2.84585941593824 0.375543988637227 -1.47116579504974 1.14059083023052 0.353266566821685 -1.38971415101337 0.891808053092022 -0.795679079940907 1.31544290088691 -1.68069831491659 -0.475720975560193 -1.11863443206431 -0.665536319031284 0.20059862113938 1.08346574056315 0.370864275337139 -0.716621152016983 -1.27663081067535 0.46251836513006 -0.292139084799878 -1.25376084216199 -0.046494088023372 0.193204841270665 -0.383553341369979 0.127689861361248 1.14576274093075 -0.930534219815796 -1.20495501474887 -0.0230777635174562 -0.559744410730576 0.430415714948237 0.863796857775575 0.261746048190199 0.239446523785361 0.834631241830155 0.794580928200572 -0.546811084381116 0.646776442856033 -0.329249267909717 0.276400872495287 0.155776593000045 0.815357172964401 -0.00431871579409646 -0.337773089114406 1.01827482584057 0.191688921983227 0.161357914175302 0.802010996895193 -0.0593840206157653 0.0431044507101426 -0.927072889151451 -0.18894049508844 -0.441413190445399 0.543516724974558 1.12263998182537 0.588722971604395 -0.018977885295875 0.866252950944409 0.376638275490291 0.26796334753404 0.328738828908197 0.0689057821624447 -1.69983066179502 0.0693946064524582 0.392567149388011 -0.684568095462849 0.318510999255403 -0.22895354178658 0.837569426769846 -0.302311897354306 -1.20935562842739 0.511994874489867 0.254726180227799 -0.619068437291927 -0.02142804386447 0.695951276440479 -1.06263931226826 -1.00986461560305 -0.368626172449843 -0.224428701742647 0.272380910438468 -0.0251100066849769 -0.106278831635076 -0.509716467771787 0.1002107026574 -0.178888547025358 -0.0256178794823006 -0.0408232070834892 0.564963774900687 0.314416690171573 -0.346372004207011 0.341664844414392 0.510785726345976 -0.406296454231809 0.782064725482763 0.150924827462715 -0.0287386251510657 0.0473764792092522 0.182089970551523 0.319724323585779 0.0539058557511212 0.299170529313741 -0.0232424259896661 0.1345894605986 -0.143699402957857 -0.462438173355251 -0.101916389339073 -0.380392196787058 -0.112574776080542 -0.0762066197419412 0.539974286552006 -0.116027889939302 0.148848617280217 -0.0545135414191204 -0.541769600287887 -0.827108351183542 -0.119065231580659 -0.287947824041989 0.229665699206973 0.252921487249829 0.199036659464911 -0.550734721234166 -0.205510194921648 0.503917487850465 0.390346121187349 0.0572486418106189 0.0745634512244722 0.105549178631739 -0.466016721873472 -0.236768812869252 0.581010794760096 0.246659677753583 0.181946800697446 0.0310979812775163 -0.250858561134017 -0.351753701987094 -0.129994622757388 -0.362194036397029 0.290382848378304 -0.419335662628792 0.140685103584755 0.188165958943929 0.186134274585257
barman 138.734474879317 61.5649920676013 15.2834349939035 49.8375675729274 9.37733397859415 0.707929754640136 7.31612099285624 10.1700100414118 -5.03007545881856 21.9530115671194 7.76082716375199 -8.38219536027192 -7.10216061447387 0.138560125813043 14.5642329409875 3.58080768389852 2.07813706333854 -3.44879491053167 -0.80134007526524 3.43686266225718 -4.33659228035241 -1.14255659443709 4.94025950617061 -4.97128036638525 6.61930799509533 -14.7865368880444 3.53391721358558 -3.66059984765507 -8.14294639933278 2.01089757739292 -3.65943902227376 1.05575853415671 1.75324418442952 -0.0554144969836935 1.29256876320735 6.26208146065881 3.62365063374853 3.63482238472988 -1.17092911101695 -4.31214258824723 0.746510787486236 3.04031832170795 -7.34810665442898 -1.16401536911429 3.94408327154392 -1.51260607768925 5.15973194881643 -6.65622307117359 -1.31426948173545 3.24541348399591 5.86521977868885 -2.45003594134141 -2.9456677800626 -2.39251154590765 1.63373473824853 -6.20451523017524 2.35548266127696 2.73554428458465 -0.716693946298601 3.10590448119571 1.93297332338829 -6.45340065223643 -0.621198515302747 0.422654609807794 0.755381266613569 -1.28451993606591 -0.0169097974466376 -3.12629788697373 -2.14580795580472 0.817343953440019 -0.948538442384639 1.28969112732552 0.676873638475315 -2.23434520655017 -1.62581176247619 -1.23785025497042 0.389369707399773 2.04921430971751 1.14110166984408 -3.15687441531592 3.09058835807284 2.96171348283085 0.991000518756769 -2.3003948479285 -0.192383346408298 -0.638005894494576 -0.773972360199268 -1.50540695677832 -1.58667013135736 0.0390373591549773 1.32602927609936 1.93399248243275 -0.279317964633449 -0.0706767192366461 2.51186976342209 0.654288406948318 2.88552399187968 -2.42712855360697 -0.585695729424179 2.12829078307544 -0.40964325755786 -1.82390343579407 1.64700967868607 1.33645108781168 0.726223247299309 1.17422199340827 0.786213817049757 2.8543304127004 1.31514406435802 0.0638625567367693 2.35351361325596 0.13255414851459 0.947895493326088 -0.485251377820045 0.730484346427412 0.926343799332971 0.0196654859167217 -0.685757634739191 -0.203443320405149 0.815864470432109 1.49138879038277 -1.37028120971849 0.169677039737451 0.118148764347303 -0.78500091914284 0.412754771284372 -1.38798424655357 -2.68542878639681 0.2929362390345 -0.198167567056099 -0.0017812761404081 -1.33650329860389 1.19608569596422 0.334303098169659 -1.64888741883888 1.37996731052718 0.141213992391103 -0.113208584751019 -0.825136096894278 1.24186140927684 -2.3398523609684 1.13334219767166 -1.47229133373237 -1.17426963754856 -1.68548998144763 0.60144816214878 -0.906381108287438 0.164633637822393 -0.25897704838571 -1.35292263811828 -0.0617435742652529 0.0642599905706903 0.804794995096551 -0.944361456919122 -0.723714425827186 1.76495727172288 -0.0659117752227333 -2.84585941593824 0.375543988637227 -1.47116579504974 1.14059083023052 0.353266566821686 -1.38971415101337 0.891808053092022 -0.795679079940906 1.31544290088691 -1.68069831491659 -0.475720975560193 -1.11863443206431 -0.665536319031283 0.20059862113938 1.08346574056315 0.37086427533714 -0.716621152016983 -1.27663081067535 0.462518365130062 -0.292139084799878 -1.25376084216199 -0.0464940880233717 0.193204841270665 -0.383553341369981 0.127689861361249 1.14576274093075 -0.930534219815796 -1.20495501474887 -0.0230777635174553 -0.559744410730575 0.430415714948236 0.863796857775575 0.261746048190199 0.239446523785362 0.834631241830154 0.79458092820057 -0.546811084381115 0.646776442856033 -0.329249267909717 0.276400872495287 0.155776593000044 0.815357172964401 -0.00431871579409471 -0.337773089114405 1.01827482584057 0.191688921983227 0.161357914175302 0.802010996895192 -0.0593840206157659 0.0431044507101426 -0.92707288915145 -0.18894049508844 -0.441413190445401 0.543516724974558 1.12263998182536 0.588722971604395 -0.018977885295875 0.866252950944409 0.376638275490291 0.26796334753404 0.328738828908197 0.0689057821624451 -1.69983066179502 0.0693946064524581 0.392567149388011 -0.684568095462849 0.318510999255403 -0.22895354178658 0.837569426769847 -0.302311897354306 -1.20935562842739 0.511994874489868 0.254726180227799 -0.619068437291928 -0.0214280438644707 0.69595127644048 -1.06263931226826 -1.00986461560305 -0.368626172449843 -0.224428701742648 0.272380910438468 -0.0251100066849766 -0.106278831635077 -0.509716467771788 0.1002107026574 -0.178888547025358 -0.0256178794822999 -0.0408232070834891 0.564963774900687 0.314416690171573 -0.346372004207012 0.341664844414392 0.510785726345976 -0.406296454231809 0.782064725482763 0.150924827462715 -0.0287386251510662 0.047376479209252 0.182089970551524 0.319724323585778 0.0539058557511213 0.299170529313741 -0.023242425989667 0.134589460598599 -0.143699402957857 -0.46243817335525 -0.101916389339073 -0.380392196787058 -0.112574776080541 -0.0762066197419412 0.539974286552006 -0.116027889939302 0.148848617280217 -0.054513541419121 -0.541769600287887 -0.827108351183542 -0.119065231580659 -0.287947824041989 0.229665699206972 0.252921487249829 0.199036659464911 -0.550734721234166 -0.205510194921648 0.503917487850465 0.39034612118735 0.0572486418106196 0.074563451224472 0.105549178631739 -0.466016721873472 -0.236768812869252 0.581010794760097 0.246659677753583 0.181946800697447 0.0310979812775169 -0.250858561134017 -0.351753701987094 -0.129994622757388 -0.36219403639703 0.290382848378304 -0.419335662628793 0.140685103584755 0.188165958943929 0.186134274585257
